solver_type L2R_L2LOSS_SVC_DUAL
nr_class 3
label 1 0 2
nr_feature 4096
bias -1
w
0 0 0 
0 0 0 
0 0 0 
0 0 0 
0.3621938046355538 -0.1439064853002678 -0.2494766696717859 
0 0 0 
0 0 0 
-0.001778719655710231 0.0004134130248223001 0.001274197399429521 
0 0 0 
0 0 0 
0 0 0 
0 0 0 
0 0 0 
0 0 0 
0 0 0 
0.09831190621702166 0.0298548986795902 -0.1406879283332799 
0 0 0 
0 0 0 
0 0 0 
0 0 0 
-0.1150617186270721 0.2295360868444969 -0.1247010062748479 
0 0 0 
0 0 0 
-0.05957358143179272 0.1010631743600198 -0.04620437975891322 
0.2277919040562028 -0.2255950657653654 0.02980727374573449 
0.4587183398093628 -0.4829428258687543 0.04729895177155944 
0 0 0 
0.07134008630139164 -0.1320686116339965 0.1004565002057375 
0 0 0 
0 0 0 
0.110465336680902 0.07816989709388159 -0.1653947829737945 
0 0 0 
0 0 0 
0 0 0 
0.2107607888888689 -0.343453794469723 0.1509195699964506 
0 0 0 
0 0 0 
0 0 0 
0.4452922904097919 -0.04552908098579209 -0.4219126693027969 
0 0 0 
0 0 0 
0 0 0 
0 0 0 
0 0 0 
0 0 0 
0 0 0 
0 0 0 
0 0 0 
0 0 0 
0.2157751070515214 -0.4971299668581157 0.2647397561046551 
0 0 0 
0 0 0 
0 0 0 
0 0 0 
0 0 0 
0 0 0 
0 0 0 
0 0 0 
0 0 0 
0 0 0 
-0.3428716813637565 -0.05697644039418243 0.3869551045322747 
0 0 0 
0 0 0 
0 0 0 
0 0 0 
0.1899592795175889 -0.2156281775581381 0.04702219638836754 
0.02292797688358397 0.3044306879844992 -0.2970950658897771 
0 0 0 
0 0 0 
0.202774874464317 -0.5703457669520425 0.4131897515496434 
0 0 0 
0 0 0 
0 0 0 
0 0 0 
0 0 0 
0 0 0 
0 0 0 
0 0 0 
0 0 0 
0.009154572498386597 -0.1615760192252881 0.1739303175248436 
0 0 0 
0 0 0 
0 0 0 
0 0 0 
0 0 0 
0.1533118860574006 -0.1544412325738277 -0.01678017266597475 
0 0 0 
-0.2086548885318485 0.2309394607503696 -0.01241225740009926 
0 0 0 
0 0 0 
0.02541514581089973 0.1739174515087004 -0.2168168157681731 
0 0 0 
0 0 0 
0 0 0 
0 0 0 
0 0 0 
0 0 0 
0 0 0 
0 0 0 
0 0 0 
0 0 0 
0 0 0 
0 0 0 
0.1008651134571321 -0.2375928202563903 0.1316485295336212 
0 0 0 
-0.1624810919173015 -0.04853396723987298 0.1941437543809942 
0 0 0 
0 0 0 
0.2198447774306724 -0.1715729707919287 -0.0531274696000305 
0.2221531435632411 -0.01108558439784892 -0.1757925269130289 
0 0 0 
-0.1605374137824715 -0.3470906660176638 0.557922557350688 
-0.1099924712346601 0.1918001635198518 -0.07459617829925563 
0 0 0 
0 0 0 
0 0 0 
0 0 0 
0 0 0 
0 0 0 
0 0 0 
0 0 0 
0 0 0 
0 0 0 
0.3256431646578477 -0.1369832652048393 -0.1648840611791239 
0 0 0 
0 0 0 
-0.1580212913449897 -0.2828132129062504 0.3981673142282614 
0.001571485492617103 -0.1068662655983684 0.1405381783475907 
0.1008255950712393 0.0672917687406093 -0.139487777214525 
0 0 0 
0 0 0 
0 0 0 
0.0505076812816858 0.3197554048878894 -0.3772445863958916 
0 0 0 
0 0 0 
0 0 0 
0 0 0 
-0.01157520513831133 -0.1142543822280175 0.1377622098073817 
0 0 0 
0 0 0 
0 0 0 
-0.2170118411129268 0.3843083292522099 -0.1768068389842299 
0 0 0 
0 0 0 
0 0 0 
0 0 0 
0 0 0 
0 0 0 
0 0 0 
0 0 0 
0 0 0 
0 0 0 
-0.06351176352394211 -0.2072320626961545 0.2564205465724835 
0 0 0 
-0.2138616160325177 0.3859366306862531 -0.1687663498933239 
0 0 0 
-0.08533170673571121 0.07624397421357401 0.009102448323973882 
0 0 0 
0 0 0 
0 0 0 
0 0 0 
0 0 0 
0 0 0 
0 0 0 
0 0 0 
0 0 0 
0 0 0 
0 0 0 
0 0 0 
0 0 0 
0 0 0 
-0.01888145133306899 -0.05449025854513955 0.08686822433673619 
0 0 0 
0 0 0 
0 0 0 
0 0 0 
-0.09976407250275034 -0.2243101795287393 0.275750437705237 
0 0 0 
-0.3561377876935702 0.05616857793861862 0.2786187973010154 
0 0 0 
0 0 0 
0 0 0 
0 0 0 
-0.2134030515786846 0.0008128901672718235 0.1941456474460834 
0 0 0 
0.4053851010754813 0.1582635955595911 -0.5359152049127209 
0 0 0 
0 0 0 
0 0 0 
0 0 0 
0 0 0 
0 0 0 
0.1516168237718273 0.2069102555550548 -0.3316197891728836 
0 0 0 
0 0 0 
0 0 0 
0 0 0 
0 0 0 
0 0 0 
0 0 0 
0 0 0 
0 0 0 
0 0 0 
-0.334616011466745 -0.06600766494810736 0.3570473904873689 
0 0 0 
-0.08314755560283422 0.04121791302663388 0.03924738337341666 
0 0 0 
0 0 0 
0 0 0 
0 0 0 
0 0 0 
0 0 0 
0.3471975175633299 0.02867951712416906 -0.3849799064591778 
0 0 0 
0 0 0 
-0.1112870644056584 -0.0998402910511936 0.2251411343396815 
0 0 0 
0 0 0 
0 0 0 
0 0 0 
0 0 0 
0 0 0 
0 0 0 
0 0 0 
0 0 0 
0 0 0 
0 0 0 
0 0 0 
-0.1608131744475734 -0.2041296206688474 0.3538818338835397 
0 0 0 
0 0 0 
-0.09122137432397862 -0.2831664763614136 0.4088343792031094 
0 0 0 
0 0 0 
0 0 0 
0.02726633607210949 0.03356745144604575 -0.07223379176048074 
0.1796762148463133 -0.3114871830824687 0.1141257569003229 
0 0 0 
0 0 0 
0 0 0 
0 0 0 
0 0 0 
0 0 0 
0 0 0 
0 0 0 
0 0 0 
0 0 0 
0 0 0 
0 0 0 
0 0 0 
0 0 0 
0 0 0 
-0.1928551305502713 0.3156539989834193 -0.1414210114848682 
0 0 0 
0 0 0 
0 0 0 
0 0 0 
0 0 0 
0 0 0 
0 0 0 
0 0 0 
0 0 0 
0 0 0 
0 0 0 
0 0 0 
0 0 0 
0 0 0 
0 0 0 
0 0 0 
-0.2811729231846709 0.08893310589213832 0.1507689401480542 
0 0 0 
0 0 0 
0 0 0 
0 0 0 
0 0 0 
0.0858121266239136 -0.0391374216755551 -0.005112689538769435 
0 0 0 
0 0 0 
-0.08285633946975055 -0.2636153406809817 0.3179936344764263 
0 0 0 
0.08039533634256364 -0.2989192575173411 0.2192571747790101 
0.001888597132137112 0.07256053991219485 -0.03557951628386433 
0.09488451510288394 0.00418549623654088 -0.09784225250311479 
0 0 0 
0 0 0 
0 0 0 
0 0 0 
0 0 0 
0 0 0 
0.1604667882101343 -0.3754886562367184 0.1838460849707232 
0 0 0 
0 0 0 
0 0 0 
0 0 0 
0 0 0 
0 0 0 
0 0 0 
0.166222002139841 0.4259103835209416 -0.5645260627044033 
0 0 0 
0 0 0 
0 0 0 
0 0 0 
0 0 0 
0 0 0 
0 0 0 
0 0 0 
0 0 0 
0 0 0 
0 0 0 
0 0 0 
0 0 0 
0.374602535633424 -0.1619991135603641 -0.2330017533686166 
0 0 0 
0 0 0 
0 0 0 
-0.04214714201730863 -0.1605707748707828 0.2229316666615666 
0 0 0 
0.207773411501681 0.09852524228182306 -0.3076378571508838 
-0.3433427903412377 -0.1183451781775049 0.4597014675872679 
-0.1714090007990474 0.2102574176969011 -0.04734006719467574 
0.0274366396490839 0.3520622674893946 -0.4028784982920369 
0 0 0 
0 0 0 
0 0 0 
0.1336967111431181 0.02866500375270049 -0.1502030724653408 
-0.2155500358445484 0.6580189032450134 -0.4232900219976914 
0 0 0 
0 0 0 
0.297576014976782 -0.4821063213928294 0.190026518961932 
-0.1021025375993546 0.1489804331123721 -0.03748545177420019 
0 0 0 
0 0 0 
0 0 0 
0 0 0 
-0.3023009859057137 0.1827761772670869 0.09148203971074097 
0.08176985137498416 -0.2720133813938342 0.1910189196930802 
-0.4269584521823493 0.6332670957878427 -0.2525315069063645 
0 0 0 
-0.1423025944265385 0.0653615253011053 0.03410951727578267 
0 0 0 
0 0 0 
0 0 0 
0 0 0 
0 0 0 
0 0 0 
0 0 0 
0 0 0 
0 0 0 
0 0 0 
0.2467292748897511 -0.2906547226318399 0.06611116125213998 
0 0 0 
-0.4324963552330317 0.7337624895906212 -0.3170234491034283 
0.567286062888779 -0.5340615541535479 -0.03772794907742093 
-0.1365271540372289 -0.07555825615806772 0.2034914275851254 
-0.1397146112184061 -0.1269389436792566 0.2991933141032247 
0 0 0 
0 0 0 
0.1458774331723713 -0.002497938896376759 -0.1461612081328495 
0 0 0 
-0.2127718077959238 0.1614895362750118 0.06609585864749323 
0 0 0 
-0.07506110259840766 0.4980112910168734 -0.4145254238763753 
0 0 0 
0 0 0 
0 0 0 
0 0 0 
0.01287551985294532 -0.06950124235712009 0.06083157599201724 
0 0 0 
0 0 0 
0 0 0 
0 0 0 
0 0 0 
0 0 0 
0.2658358986965656 -0.08316823794509123 -0.1770429921400433 
0 0 0 
0 0 0 
-0.03727736957553908 0.1713980689144139 -0.1621447697216021 
-0.488185429776806 0.3437710076210646 0.1714559443757543 
0 0 0 
0 0 0 
0.2847548836199555 0.05298812823173153 -0.3382650201248498 
0.2025734710609004 -0.4013622595814605 0.1757900925584719 
0 0 0 
0 0 0 
-0.36417215437266 0.3712070823442263 -0.01064208854289343 
0 0 0 
0 0 0 
0 0 0 
0 0 0 
-0.3113779405642346 0.3272887398221928 -0.03010014498866048 
0 0 0 
0.07399905243301176 -0.4489077195811336 0.3949807878277798 
0 0 0 
0 0 0 
0 0 0 
0.5261440133097267 -0.3543866870316767 -0.1991677843224821 
0 0 0 
0 0 0 
0.8101942160021836 -0.2128203926029558 -0.5861047929535376 
-0.01197069503516128 -0.2978832639349502 0.3146457655698859 
0 0 0 
0.01704238799931462 0.01463884278240308 -0.0236653495084418 
-0.04067489878758828 0.4036633685431394 -0.3121991687868638 
0 0 0 
0 0 0 
0 0 0 
0 0 0 
0 0 0 
0 0 0 
0 0 0 
0 0 0 
0 0 0 
0 0 0 
0 0 0 
0 0 0 
0 0 0 
0 0 0 
0.2788850767258623 -0.3434157552817247 0.0363497828644435 
0 0 0 
0 0 0 
0 0 0 
0 0 0 
0 0 0 
0 0 0 
0.1966323451176945 0.1225783183731809 -0.3039157064724435 
0 0 0 
0 0 0 
-0.6897726981353481 0.5699156684641153 0.09074344095261279 
0 0 0 
0 0 0 
0 0 0 
0 0 0 
0 0 0 
0.1493533789646208 -0.1235143714498512 -0.0235596613149417 
0 0 0 
0.03858978765638348 -0.1118915141699963 0.05438146360761618 
0 0 0 
0 0 0 
0 0 0 
0 0 0 
0 0 0 
0 0 0 
0 0 0 
0 0 0 
0.3387692093908456 -0.4375652248848363 0.1126351767855498 
0 0 0 
0.003472203943263957 0.6249119322083857 -0.6243819419738802 
0 0 0 
0 0 0 
0.2861753393568601 0.05113376307668261 -0.3377553801640958 
0 0 0 
0 0 0 
0 0 0 
-0.08045402724955934 -0.15127166723088 0.2266960472634137 
0 0 0 
-0.1449405202590778 0.2105606699096997 -0.026910549256992 
0 0 0 
-0.003941193542241683 0.383277350024754 -0.3703055747182321 
0 0 0 
0 0 0 
0 0 0 
0 0 0 
0 0 0 
-0.08212544742785595 0.125503683139581 -0.07588080982910025 
0 0 0 
0 0 0 
0 0 0 
0 0 0 
0 0 0 
-0.4698630422469005 0.2617155113475956 0.153156203331578 
0 0 0 
0 0 0 
0 0 0 
0 0 0 
-0.03069950249919523 0.1818154619245821 -0.1520337501070436 
0.3327587749186126 0.08265806720949034 -0.450733569908049 
0 0 0 
-0.08727757612835173 0.2247574155747839 -0.1095537242109986 
0 0 0 
0 0 0 
-0.5250523606685077 0.1757813623013294 0.313240470719029 
0 0 0 
0 0 0 
0 0 0 
-0.4538131966203934 0.3481405605208912 0.08083904286478018 
0.07363658295356411 0.1415439554101041 -0.2223733909022476 
0 0 0 
0 0 0 
0 0 0 
0 0 0 
0.01484915962708321 -0.4517898606803546 0.453086320495044 
0 0 0 
0 0 0 
0 0 0 
0 0 0 
0 0 0 
0 0 0 
0 0 0 
0.08352837862041199 -0.1387239076282493 0.02147683286432959 
0 0 0 
0 0 0 
0 0 0 
-0.144160818723055 0.2621661755092269 -0.08753115025663701 
0 0 0 
0 0 0 
0.4175566051818164 -0.19636346623547 -0.1981692628726585 
0 0 0 
0 0 0 
-0.1830238488347116 -0.03148642510334092 0.234260916198471 
0 0 0 
0 0 0 
0 0 0 
0 0 0 
0 0 0 
0.1850612151094255 -0.01601680193234733 -0.1638592110168234 
0.2046641693362692 -0.1668578130554624 -0.01815371170503136 
0 0 0 
0 0 0 
0.02955135503915498 0.3375581313197318 -0.382057113689274 
0 0 0 
0.1317219502037233 -0.3642711748491141 0.2006256238427993 
0 0 0 
0 0 0 
0 0 0 
0.05948566615082755 0.3939479349721277 -0.3949399489870582 
0 0 0 
0.2731813724043479 -0.3387646554788606 0.1287834272984605 
0 0 0 
0 0 0 
0 0 0 
0.2579043848157927 -0.1148336277421173 -0.1546868703841712 
0 0 0 
0 0 0 
0 0 0 
0 0 0 
0.04101270124388957 -0.001093064125937966 -0.03783516108119316 
0 0 0 
0 0 0 
0 0 0 
0 0 0 
0 0 0 
0 0 0 
0 0 0 
0 0 0 
0 0 0 
0 0 0 
0 0 0 
0 0 0 
0 0 0 
0 0 0 
0 0 0 
0 0 0 
0 0 0 
0 0 0 
0.170795578416856 -0.1246523207991172 -0.03075845941026076 
0 0 0 
0 0 0 
0 0 0 
0 0 0 
0 0 0 
0 0 0 
0.25382968424027 -0.005985779478444487 -0.2635727058394762 
0 0 0 
0 0 0 
-0.1167058499270425 0.04573558667600869 0.03334762235977582 
0.1681883416448944 0.2653228597154662 -0.4310948637808703 
0 0 0 
0 0 0 
0.1274886938281314 -0.6417919460065474 0.5299672525213553 
-0.3100644733687806 0.06091716264325317 0.216561994552119 
0 0 0 
-0.07410059628850393 0.15538236115076 -0.05200460503460173 
0 0 0 
0 0 0 
0 0 0 
0 0 0 
0 0 0 
0 0 0 
0.2508037575548335 -0.5189294748223569 0.2847200827284374 
0.3363070480888068 -0.3391040326932837 0.01917267130982235 
0 0 0 
0 0 0 
-0.1345208456170898 0.6113389367571475 -0.4991332916231931 
0 0 0 
0 0 0 
0 0 0 
0 0 0 
0 0 0 
0 0 0 
0 0 0 
0 0 0 
0.3019806178340443 -0.4261865126892767 0.1071895981204921 
0 0 0 
0 0 0 
0 0 0 
0.2730264556153656 0.1567388515525549 -0.4371247752753679 
0 0 0 
0 0 0 
0 0 0 
0 0 0 
0 0 0 
0.08262646632108409 0.1738558922346359 -0.2185508327250085 
0 0 0 
0 0 0 
0 0 0 
0 0 0 
0.02643406304278253 -0.5850238383961357 0.5919462803502421 
0 0 0 
0 0 0 
0.4357704444974571 0.03872071492820121 -0.4800849503627528 
0 0 0 
0 0 0 
0 0 0 
0.1091642322851124 -0.2232829181202713 0.1212830992926959 
0 0 0 
0 0 0 
0.03685168474881917 -0.4192968148876338 0.3848243807069097 
0 0 0 
0 0 0 
0 0 0 
0 0 0 
0 0 0 
0.1194968155750878 -0.3139713602722566 0.1767457849354558 
0 0 0 
0 0 0 
0 0 0 
0 0 0 
0 0 0 
0.00395940107548111 -0.1408293369894078 0.1513483418758169 
0 0 0 
0 0 0 
0 0 0 
0 0 0 
0 0 0 
0 0 0 
0.4838820506964222 -0.2987761373572999 -0.1849360806564816 
0 0 0 
-0.06026272991179115 0.1176108693621521 -0.03966554156769783 
0 0 0 
0 0 0 
0 0 0 
0.234706031669116 -0.08110448665985799 -0.1549116435050312 
0 0 0 
0 0 0 
0 0 0 
0 0 0 
0 0 0 
0 0 0 
0 0 0 
0 0 0 
0 0 0 
0 0 0 
-0.1809800483527298 -0.1076773056993673 0.2719640271148152 
0 0 0 
0 0 0 
0 0 0 
0.08897559755505861 -0.6693827776772093 0.5518580939459307 
0 0 0 
0 0 0 
0 0 0 
0 0 0 
0 0 0 
0 0 0 
0 0 0 
0 0 0 
0 0 0 
0 0 0 
0 0 0 
0 0 0 
0 0 0 
0 0 0 
0 0 0 
0 0 0 
0 0 0 
0 0 0 
0.2027213589774928 -0.2115084944418106 0.03175714836198219 
0 0 0 
0 0 0 
0 0 0 
0 0 0 
0 0 0 
-0.06603541099918159 -0.3427290489992721 0.4080948601989902 
0 0 0 
0 0 0 
0 0 0 
0 0 0 
0 0 0 
0.6410361681404148 -0.1985242798709208 -0.4227630712193841 
0 0 0 
0.264246122952307 -0.241466276253288 0.0371389342764214 
0 0 0 
0 0 0 
0 0 0 
0 0 0 
0 0 0 
0 0 0 
0 0 0 
0 0 0 
0 0 0 
0 0 0 
0 0 0 
0 0 0 
0 0 0 
0 0 0 
0 0 0 
0 0 0 
0 0 0 
-0.5455090252575817 0.1605216831855701 0.3396986588984116 
0.1465520007582783 -0.06525889768969508 -0.09134045906840044 
0.5488226755401823 -0.5289392948972717 0.007537429287656296 
0 0 0 
0 0 0 
-0.01972880105320623 -0.04056714962529807 0.05035406350711496 
-0.002548779918976456 0.008346923695118922 0.01655893152403676 
0 0 0 
0 0 0 
0 0 0 
-0.4694705172136395 0.1955742462356305 0.2818926615212335 
0 0 0 
0.08649264797096319 -0.4245124799026374 0.3009929109644097 
0 0 0 
0 0 0 
0 0 0 
0 0 0 
0 0 0 
0 0 0 
0 0 0 
0 0 0 
0.2290670666349989 -0.09996214202679113 -0.06738090442637221 
0 0 0 
0 0 0 
0 0 0 
-0.3974455569408668 -0.01007394972978267 0.3806807511265383 
0 0 0 
0 0 0 
0 0 0 
-0.2891604702204196 0.2769159362187676 0.007855110625239659 
0 0 0 
0.2831838745239955 0.03547882365715263 -0.3164912633708957 
0 0 0 
0 0 0 
0.08727156551118323 0.006244928745133668 -0.1013137538602234 
0.5819816685456052 -0.6804526607389373 0.1537907804196245 
0 0 0 
0 0 0 
0 0 0 
0 0 0 
0 0 0 
0.5371863958656108 -0.5588917310645422 0.009780666859040669 
0 0 0 
0 0 0 
0 0 0 
0 0 0 
0.1251568414811215 0.2432089072660517 -0.2923769930060288 
0 0 0 
0 0 0 
0.4401706181045392 -0.1055197384143232 -0.3331395904112078 
0 0 0 
0 0 0 
0 0 0 
-0.1603922785308098 -0.1886189111134856 0.3454642253311626 
0 0 0 
0 0 0 
0 0 0 
0 0 0 
0.04957937222988683 0.02653666452554465 -0.08032420754655645 
0 0 0 
0.05525001598351416 -0.3901169289688868 0.3601633468537777 
-0.07500440937981441 -0.1964097573636733 0.2884246022844009 
0 0 0 
0.3208459704541328 -0.01609967348997332 -0.3003502077400086 
0 0 0 
0.1408055111146164 -0.3241678835646246 0.1664484813190369 
0 0 0 
0 0 0 
0 0 0 
0 0 0 
0 0 0 
0.1781350420169478 -0.1269269478007027 -0.06756120231644532 
0 0 0 
0 0 0 
0 0 0 
0 0 0 
0 0 0 
0 0 0 
0 0 0 
0 0 0 
0 0 0 
0 0 0 
0 0 0 
0.03101788934555453 0.1163821932179427 -0.18765606407461 
0 0 0 
0 0 0 
0 0 0 
0.02308780348423538 -0.06648671009611387 0.03721668512919392 
0.1955929017260924 -0.1553771506366545 -0.03714396692270569 
0 0 0 
-0.2016818423549741 -0.3433254243109856 0.5350878433996566 
0 0 0 
0 0 0 
0 0 0 
0.3135291053544908 -0.2230084322420784 -0.06224633334997452 
0 0 0 
0 0 0 
0 0 0 
-0.2492786630874249 -0.1424261913766361 0.3570326482636024 
0 0 0 
0 0 0 
0 0 0 
-0.3400376414810061 0.4370374427788796 -0.1001658882034116 
0 0 0 
0.7316813085343323 -0.3406903248590547 -0.3451832963102442 
0 0 0 
0 0 0 
0 0 0 
-0.09168481891223618 0.1683996666977484 -0.1097426340169402 
0 0 0 
-0.01362206533312327 0.02320092082005282 -0.03049074716548946 
0.5476858350810664 -0.2384978381897235 -0.2996836129384035 
0 0 0 
0 0 0 
0 0 0 
-0.2019110793106983 -0.2886455743590906 0.4896733051059715 
0 0 0 
0 0 0 
0 0 0 
0 0 0 
0 0 0 
-0.1282640819364406 -0.03348395640346571 0.1422598780705157 
0 0 0 
0 0 0 
0 0 0 
8.678039701569469e-05 -3.54591996935881e-05 -5.031420960250809e-05 
0 0 0 
0 0 0 
0 0 0 
0.1844506840280189 -0.16346561525801 0.04112563208455777 
0 0 0 
0 0 0 
0 0 0 
0 0 0 
0 0 0 
0 0 0 
0.2223664806040442 -0.2896798833115068 0.07233618417314906 
0 0 0 
0 0 0 
0 0 0 
0 0 0 
-0.0815322236349291 -0.01535707000846704 0.1373719860337785 
0 0 0 
0 0 0 
0 0 0 
0 0 0 
-0.03622890277070537 0.08649726900873225 -0.07235560394566937 
-0.3213101644209443 0.2839769644739265 -0.003618128554851778 
0 0 0 
-0.189935687089843 0.4117174564523975 -0.2035477502569263 
0 0 0 
0.4642196299036451 0.005761307389966257 -0.4364120532862134 
0.1632470508384471 -0.1191241985131397 -0.02914233123098469 
0.175043292060159 -0.3935378043584165 0.2208139394338126 
0 0 0 
-0.2136630167124604 0.1588091195504761 0.05933309519946361 
0 0 0 
0 0 0 
0 0 0 
0 0 0 
-0.1866659929681144 0.1925785776470947 -0.009394852618963419 
0 0 0 
0 0 0 
-0.2815334258677574 0.02482068509608111 0.2673119065729997 
0 0 0 
0 0 0 
0 0 0 
0 0 0 
0 0 0 
0 0 0 
-0.3042854268462237 -0.1953109675576901 0.4995549424647818 
0 0 0 
-0.09472353136534981 0.2759998972368824 -0.1405832811488492 
0 0 0 
0 0 0 
0 0 0 
0.14016587957274 -0.3377095403319977 0.2233649235389215 
0 0 0 
0 0 0 
0 0 0 
0 0 0 
0.1116246252825505 -0.04873058652610971 -0.0293449110658849 
0 0 0 
0 0 0 
0 0 0 
0 0 0 
0 0 0 
0 0 0 
0 0 0 
0 0 0 
-0.01548226944524514 0.006674377813012575 0.007381379350589066 
0 0 0 
0 0 0 
0 0 0 
0 0 0 
0 0 0 
0 0 0 
0 0 0 
0 0 0 
0 0 0 
0 0 0 
0.2888169972410237 0.09379155090284765 -0.390768817326749 
0 0 0 
0 0 0 
0 0 0 
-0.1159846845069012 -0.1204622206176041 0.2607442330806071 
0 0 0 
0 0 0 
0 0 0 
0 0 0 
0 0 0 
0 0 0 
0 0 0 
0.1168971296717416 0.1929920266598239 -0.2930958461649059 
0.2117099965343535 -0.191512823532793 -0.02481719244663791 
0 0 0 
0 0 0 
0 0 0 
0 0 0 
0.1596819129264429 -0.01061043317093527 -0.1517645421096468 
0 0 0 
0.3439236029820448 0.03622170193461096 -0.4194569515284705 
0 0 0 
0 0 0 
0 0 0 
0.1731389811590999 0.3835007016227922 -0.5192717755541163 
0 0 0 
0 0 0 
0 0 0 
0 0 0 
-0.03482323132619965 0.08880594497293594 -0.01231020411483857 
0 0 0 
0.2120823704255653 0.1492635373242773 -0.3204034735279681 
0 0 0 
0 0 0 
0.1172514158500742 -0.3145052048725304 0.1808145274264737 
0 0 0 
0.06430816088102304 -0.2839507447778534 0.2250986062674093 
0 0 0 
0.0623330076603322 -0.004256300256056983 -0.04560956857494201 
0 0 0 
0.2108184559266519 -0.1208050411501357 -0.02467556177826207 
0.07338478177143015 -0.1134090817934546 0.03019855081941692 
0 0 0 
0 0 0 
0 0 0 
0 0 0 
0 0 0 
0 0 0 
0 0 0 
0.05049884650549873 0.06304689749803581 -0.09911338181065013 
0 0 0 
0.3345497932249651 -0.2024559045237472 -0.1533185247282127 
0 0 0 
0 0 0 
-0.07489874834814954 0.3438032649185204 -0.2942234970375468 
0.2346875005906176 -0.03169228550766919 -0.213091028487009 
0 0 0 
0 0 0 
0 0 0 
0 0 0 
0 0 0 
0 0 0 
0 0 0 
-0.1434760271196014 -0.09690580925432012 0.2619329513735633 
0 0 0 
0 0 0 
0 0 0 
0 0 0 
-0.217491339512178 0.2315366132313499 -0.02774945512775222 
0 0 0 
0.09013181796647281 -0.6169150463733214 0.5355866906275701 
0 0 0 
0 0 0 
0 0 0 
0 0 0 
0 0 0 
0 0 0 
0 0 0 
0 0 0 
0 0 0 
0 0 0 
0 0 0 
0 0 0 
0 0 0 
0 0 0 
0 0 0 
0 0 0 
0 0 0 
0 0 0 
0 0 0 
0.5371912102534182 -0.5462309536890699 0.006083314931252962 
0 0 0 
0 0 0 
0 0 0 
0 0 0 
0 0 0 
0 0 0 
0.1048141462247453 0.07214799879816501 -0.1763195903948999 
0 0 0 
0 0 0 
0 0 0 
0 0 0 
0 0 0 
0 0 0 
0 0 0 
-0.08710017828739537 0.1236971194423739 -0.03349741660282313 
0 0 0 
0 0 0 
0 0 0 
0 0 0 
0 0 0 
0.08732704980069811 0.143906985266632 -0.2161740055451175 
0.06029374244631688 -0.3523273781438963 0.3352244733003246 
0.1736422097313569 -0.01652053807665855 -0.1434415302009664 
0 0 0 
0 0 0 
0.1984234539947427 -0.3144817088848283 0.1285463568625619 
0 0 0 
0 0 0 
0.1668423906274617 -0.319253687417607 0.1504440735292297 
0 0 0 
0.637663758153981 -0.1980501331799454 -0.3961875033331301 
0 0 0 
0 0 0 
0 0 0 
0 0 0 
0 0 0 
0 0 0 
0.03512217685905337 -0.04035966951386028 0.01718407345420712 
0 0 0 
-0.2672313612255462 -0.04094573190973298 0.323504379973784 
0 0 0 
0 0 0 
0 0 0 
0 0 0 
0 0 0 
0 0 0 
0 0 0 
0 0 0 
0 0 0 
0 0 0 
0 0 0 
0 0 0 
0 0 0 
0.5451993018774957 -0.2278022586036999 -0.2922975266571393 
0.003529284765805744 -0.2227672346067032 0.2195616569767464 
-0.00618332234305142 0.3293756515870896 -0.3550587040050489 
0 0 0 
0 0 0 
-0.395208486926392 -0.1718247948691654 0.6106358535739652 
0 0 0 
0.3940277584421569 -0.2530021348516581 -0.1207118904941143 
0 0 0 
0 0 0 
0 0 0 
0 0 0 
0 0 0 
0 0 0 
0 0 0 
0 0 0 
0 0 0 
0 0 0 
0 0 0 
0 0 0 
-0.08895423522906926 -0.01421554627291008 0.06500872220873256 
0 0 0 
0 0 0 
0 0 0 
0 0 0 
0.2807700047178908 -0.4808960391981761 0.2105612145063801 
0 0 0 
0 0 0 
0 0 0 
0 0 0 
-0.05133944495888559 -0.2110782437625779 0.2448835991094829 
-0.3230713328937498 0.1836103635365612 0.1198547960509029 
0 0 0 
0 0 0 
0 0 0 
0 0 0 
0 0 0 
0 0 0 
-0.004005120071341136 -0.2132926640805737 0.2136790732115854 
0 0 0 
0 0 0 
0 0 0 
0 0 0 
0 0 0 
0 0 0 
0.32520479991234 -0.1222393351370456 -0.1702562678391222 
0 0 0 
0 0 0 
0 0 0 
0.2713434328377415 -0.6246542450433643 0.3387869940494823 
0 0 0 
0 0 0 
0 0 0 
0 0 0 
0 0 0 
0 0 0 
-0.2539655265049189 0.2258718782143452 0.01088432493017981 
-0.2500327541066416 -0.3367467183403408 0.5788879639978731 
-0.1373146522239413 0.10235943147753 0.04558010641698747 
0 0 0 
0 0 0 
0 0 0 
0 0 0 
0 0 0 
0.6233119385001396 -0.3029027882063593 -0.2942565049601227 
0 0 0 
0 0 0 
0 0 0 
-0.2282896940193659 0.5471858024131385 -0.3275884698805871 
-0.02452605807019415 0.299756856272503 -0.2964576592033921 
0 0 0 
0 0 0 
0.1002453438657429 -0.3512635089239245 0.2716096723104967 
0 0 0 
-0.06942882984302289 -0.02773308993924089 0.09494808428902565 
0 0 0 
-0.457259784760511 0.3521244331106124 0.08627336545822192 
0 0 0 
0 0 0 
0 0 0 
0 0 0 
0 0 0 
0 0 0 
0 0 0 
0 0 0 
0 0 0 
0 0 0 
0 0 0 
-0.04387582134520531 0.07713556894939896 -0.0264703877855282 
0 0 0 
0 0 0 
0.2897506314066796 0.00222045410938431 -0.2773468227564608 
0 0 0 
0 0 0 
0 0 0 
0 0 0 
0 0 0 
0.1155908386194892 0.2294262095427477 -0.3636592443444736 
0 0 0 
0.3075453870429191 -0.2606721507125591 -6.090610549412272e-05 
0.1118423347108079 -0.03685289577340142 -0.1204144333509677 
0 0 0 
0 0 0 
0 0 0 
0 0 0 
0 0 0 
0.3985311165546571 -0.1149706040091757 -0.2743911138470586 
0 0 0 
0 0 0 
0 0 0 
0 0 0 
0 0 0 
0 0 0 
0 0 0 
0 0 0 
0 0 0 
0.3592496959543756 -0.05045104158368208 -0.3192032650756115 
0.238371997107991 -0.02566031663081971 -0.1823953011845093 
0 0 0 
0 0 0 
0.005769608451223332 -0.190916970357221 0.158755731181128 
0 0 0 
0.1560714237221195 -0.04758109678444948 -0.1154204420655664 
0 0 0 
0 0 0 
0.09863094077358736 -0.3299235058408365 0.2203185924838064 
0 0 0 
0 0 0 
0 0 0 
0 0 0 
0 0 0 
-0.5836751586469254 0.5281836947176121 0.03835729294630591 
0 0 0 
0 0 0 
0 0 0 
0 0 0 
0 0 0 
0 0 0 
0 0 0 
-0.2019945540194452 0.4434100304196497 -0.2205179630901558 
0 0 0 
0 0 0 
0 0 0 
0 0 0 
0 0 0 
-0.1749869440037434 0.3182799679041086 -0.1269028976480006 
-0.2095492542708481 -0.2816580322664454 0.4408710297504333 
0.2142535246589529 -0.07842972426875748 -0.1259330946640222 
0 0 0 
0 0 0 
-0.3445651834039832 0.2287811345552308 0.1289266618481468 
0 0 0 
0 0 0 
0 0 0 
0 0 0 
0 0 0 
0 0 0 
0 0 0 
0 0 0 
0 0 0 
0 0 0 
-0.1342669546064005 0.5065663471158819 -0.3763468662262763 
0 0 0 
0 0 0 
0 0 0 
0.04071027611021642 0.1953681063935712 -0.258009999147216 
0 0 0 
0 0 0 
0 0 0 
0 0 0 
0 0 0 
0 0 0 
0 0 0 
0 0 0 
0 0 0 
0 0 0 
0 0 0 
0 0 0 
0 0 0 
0 0 0 
0 0 0 
0 0 0 
0 0 0 
-0.08515597322526039 0.05640585417641272 0.03467012034791536 
0 0 0 
0 0 0 
0 0 0 
0 0 0 
0 0 0 
0 0 0 
0 0 0 
0.1222037264335494 -0.008924232090170185 -0.09754520251124281 
0 0 0 
0 0 0 
0.07148056497043213 0.3361588218372297 -0.4238616698498009 
-0.1480982823922087 -0.11287825071515 0.2953125846156734 
0 0 0 
0 0 0 
-0.4931639563256638 0.2389351282898727 0.2785696898588924 
0.2250793463927586 0.2263905650460181 -0.4414122775501973 
0 0 0 
0 0 0 
0 0 0 
0 0 0 
0 0 0 
-0.2538168616232949 -0.01243794962298419 0.2569006266107142 
0 0 0 
0 0 0 
0 0 0 
0 0 0 
0 0 0 
-0.2410852837229643 0.2677499333497448 -0.04546541582699576 
-0.3529176193672796 0.3636830956045368 -0.03052737720420843 
0 0 0 
0 0 0 
0 0 0 
-0.08586216940429039 0.4387481741598523 -0.3182910657881659 
0 0 0 
0 0 0 
0 0 0 
0 0 0 
-0.3915863250470537 -0.3387291565162982 0.760149878575502 
0 0 0 
0 0 0 
0 0 0 
0 0 0 
0 0 0 
0 0 0 
0 0 0 
0 0 0 
0 0 0 
0 0 0 
0.001803636276641478 -0.007682781977047251 0.01456408569034033 
0.0472816198871089 0.08677887827356189 -0.1012047719056608 
0 0 0 
0.08570374731583034 0.1024791774445188 -0.1969698121188175 
0 0 0 
0 0 0 
0 0 0 
0 0 0 
0.23717220255896 0.01710691438339581 -0.2427867575184894 
0 0 0 
0 0 0 
-0.002090159486534658 0.4001504427682601 -0.3207171536437982 
0 0 0 
-0.09556042816701879 -0.09205541640535302 0.173014351688289 
0 0 0 
0 0 0 
0.1945689527057345 -0.262808173209337 0.07526531976667042 
0 0 0 
0.4572888922948535 0.009129529735142508 -0.4654377335925016 
0 0 0 
0 0 0 
0 0 0 
0 0 0 
-0.2012253134187602 -0.02077358436449243 0.1935102136534513 
0 0 0 
0 0 0 
0 0 0 
0 0 0 
0 0 0 
0.1943017867782581 -0.2205731710358222 0.03467196322499113 
0 0 0 
0 0 0 
0.2095151380349042 -0.2074097826145824 0.01760855047325702 
0 0 0 
0 0 0 
0 0 0 
0 0 0 
0 0 0 
-0.07869125118336369 -0.05078976084663796 0.1130294313333185 
0 0 0 
0 0 0 
0 0 0 
0 0 0 
0 0 0 
0 0 0 
0 0 0 
0 0 0 
0.1539842683125285 -0.3266262284708982 0.157658455416917 
0 0 0 
0 0 0 
-0.5711904667396641 0.814972117237054 -0.2715987551820517 
0 0 0 
0 0 0 
0 0 0 
0 0 0 
0 0 0 
-0.2059423976399392 0.222016249517816 -0.007367230741268552 
0 0 0 
0 0 0 
0 0 0 
0.3292927804915578 -0.5440818420427684 0.2104142183471997 
-0.3404296061762145 -0.187343279949129 0.520658859141428 
0 0 0 
0 0 0 
0 0 0 
0 0 0 
0 0 0 
0 0 0 
0 0 0 
0 0 0 
-0.2370265057891713 0.188057526915215 0.06760383438194538 
0 0 0 
-0.08232151774036021 -0.03673989752507424 0.09366037484393498 
0 0 0 
0 0 0 
-0.1417450323723111 0.1185325987220093 -0.02585221164446579 
0 0 0 
0 0 0 
0.2645911758058634 -0.3383564012652006 0.1171453633504716 
0.1486622593072056 -0.1434163653246615 0.001812377836576938 
-0.1014344855316471 0.04520510083413625 -0.01054115161511456 
0 0 0 
0 0 0 
0 0 0 
0 0 0 
0 0 0 
0 0 0 
0.01194485019137035 -0.06132711244279544 0.08042549294409551 
0 0 0 
0.1534078788043258 -0.4893833036211889 0.3102730173280752 
0 0 0 
0 0 0 
0 0 0 
0 0 0 
0 0 0 
0.3375911090843752 -0.4400191883568022 0.07644876756469569 
0 0 0 
0 0 0 
-0.3926406650090738 -0.001732586159208388 0.4290855453881017 
0.3486783885121379 -0.09371630076461475 -0.2429008850689703 
0 0 0 
0 0 0 
0 0 0 
0 0 0 
0 0 0 
0 0 0 
0 0 0 
0 0 0 
0.0637798235000413 0.09065272479373038 -0.1506544487367543 
0 0 0 
0 0 0 
-0.2158251161035806 -0.08395309686993377 0.2653651357336614 
0.06959810532848719 -0.3004969566098965 0.2550108681443411 
0 0 0 
0 0 0 
0 0 0 
-0.1123946347621862 -0.4650473440446612 0.5894445079346378 
-0.1006130229922085 0.1686054066281473 -0.06471275932970003 
0 0 0 
-0.4413678689963909 0.07249538291572448 0.3669408523657564 
0 0 0 
0 0 0 
0 0 0 
0.02479387786314537 0.08751492143564557 -0.1513464392895843 
-0.08231995985652636 0.01493368699953251 0.04798671955830527 
0 0 0 
-0.003840771081379443 0.07520511044528873 -0.01885088720588753 
-0.1078943565022625 -0.05785734256097334 0.1937163774724608 
-0.3134066128836903 0.5022680119523317 -0.1765562153944413 
0 0 0 
0 0 0 
0 0 0 
0 0 0 
0.1853000889063478 -0.1517071624073348 0.02292535611673592 
0 0 0 
0 0 0 
0 0 0 
-0.05473939760920261 0.2362849237715375 -0.1615247210495938 
0 0 0 
0 0 0 
0.1284412903141666 -0.1489009043404488 0.02747452063491209 
0 0 0 
0 0 0 
0 0 0 
0 0 0 
0.1891385964333121 -0.5252341671544765 0.3604911171133443 
0 0 0 
0 0 0 
0 0 0 
0 0 0 
0 0 0 
-0.1044686971746691 0.3946499031563351 -0.2212953703537205 
0 0 0 
0 0 0 
0.2039497026392988 0.1527765689138191 -0.378205265897655 
0 0 0 
0 0 0 
0 0 0 
0 0 0 
0 0 0 
0 0 0 
-0.08207902016997153 0.5920378994529473 -0.4983009958855328 
0 0 0 
0 0 0 
0 0 0 
-0.2510512826880848 0.02353397627418286 0.1614696955729982 
0 0 0 
0 0 0 
0 0 0 
0 0 0 
-0.06210525847432413 0.3202060318350439 -0.2691851221705829 
-0.04990232914768796 -0.09506324335782279 0.1748719773032874 
0 0 0 
0.1561343907353465 -0.04444923483262994 -0.09652394305522863 
0 0 0 
0 0 0 
0.3031189586471772 -0.1680850124382842 -0.129726956468332 
0 0 0 
0 0 0 
-0.5023250141272716 0.7364209779699581 -0.265032882023162 
0 0 0 
0 0 0 
0 0 0 
0 0 0 
0 0 0 
0 0 0 
0 0 0 
0 0 0 
0 0 0 
-0.1048720045711941 -0.1751251987170908 0.257684753688269 
0 0 0 
0 0 0 
0 0 0 
0 0 0 
0 0 0 
0 0 0 
0 0 0 
0 0 0 
0 0 0 
0 0 0 
0 0 0 
0 0 0 
0.2381661997091857 0.1880960179480163 -0.4305561676225663 
0 0 0 
0 0 0 
0 0 0 
0 0 0 
0 0 0 
0 0 0 
0 0 0 
-0.1825798741997082 0.09058403159838092 0.1031449558297312 
0 0 0 
0 0 0 
0 0 0 
0.167327334871895 -0.4883300849641251 0.3574322612953942 
0 0 0 
0 0 0 
0 0 0 
0 0 0 
0 0 0 
0 0 0 
0 0 0 
0 0 0 
0 0 0 
-0.3585152037883288 0.2746259268206118 0.07957305383302425 
-0.2536216038499053 0.3521463957727481 -0.1150582264020306 
0 0 0 
0 0 0 
-0.03631709960922952 0.08934907988935006 -0.02342981044838257 
0 0 0 
-0.1734567702912423 0.3168378056926205 -0.1360607717337621 
0 0 0 
0 0 0 
0 0 0 
0 0 0 
0.2807809888353818 -0.10849487024445 -0.2180937506205091 
0.2150384693018223 -0.3630291599371186 0.1376625082163575 
0 0 0 
0 0 0 
-0.02880900841342899 0.02917881870058543 0.002412888140291902 
0 0 0 
-0.3779018570723127 0.3844647733221353 0.009863099833148424 
0 0 0 
0 0 0 
0 0 0 
0 0 0 
0 0 0 
-0.3234484818495572 0.046891491913763 0.2752135911568334 
0 0 0 
0 0 0 
0 0 0 
0 0 0 
0 0 0 
0 0 0 
0 0 0 
0.3512567381760674 0.06226158953806336 -0.3758726337377905 
0 0 0 
0 0 0 
0.08665403187908506 0.06382694280347952 -0.1242908162688036 
0 0 0 
-0.4154534711010066 0.1430837834981936 0.2781976801787265 
0 0 0 
0 0 0 
0.06854856094290779 0.07227453917136767 -0.1241908760308069 
-0.01928481443800047 0.1676688421532283 -0.1670669621335881 
0 0 0 
0.0404584474622219 -0.3084436165552099 0.2852034378575327 
0 0 0 
0.1373481681070769 0.1663935397232919 -0.3040685366405255 
0 0 0 
0 0 0 
0 0 0 
0 0 0 
0 0 0 
0 0 0 
0 0 0 
0 0 0 
0 0 0 
0 0 0 
-0.02503378456203156 -0.004165242643490988 0.02072581464593912 
0 0 0 
0 0 0 
0 0 0 
0.3043723433996299 0.2407853133000924 -0.5227259440581541 
-0.2215718481657332 0.2374569985931689 0.003315176723464848 
0 0 0 
0 0 0 
0.09782773477129382 0.0695797064670866 -0.1403299595056682 
0 0 0 
0 0 0 
0 0 0 
-0.1633475954730586 0.06867297275885002 0.09568868951341479 
0 0 0 
0.02599274642705629 -0.05370226693711856 0.05288756328263646 
0 0 0 
0 0 0 
-0.2729704466856889 0.1824109240872573 0.07178586822899055 
0 0 0 
0 0 0 
0 0 0 
0 0 0 
0 0 0 
0 0 0 
0 0 0 
0 0 0 
0 0 0 
0 0 0 
-0.02193366089285713 -0.04049035217893206 0.07780257692250583 
0 0 0 
0 0 0 
0 0 0 
0 0 0 
0 0 0 
0 0 0 
0 0 0 
0 0 0 
0 0 0 
0 0 0 
0 0 0 
0 0 0 
0 0 0 
0 0 0 
-0.2641905213445675 -0.02717979684972515 0.3019045566303916 
0 0 0 
0 0 0 
0 0 0 
-0.2908926672419739 -0.4512605542382131 0.7206404663750146 
0 0 0 
0 0 0 
0 0 0 
0 0 0 
-0.4214678146102269 0.09912394853090263 0.3270978673805566 
-0.04389648513317163 0.07107571796958248 -0.01258483393763167 
0 0 0 
0 0 0 
0.1085231571620916 0.002701682601522754 -0.05838184594676613 
0 0 0 
0 0 0 
0 0 0 
0 0 0 
0 0 0 
0.2514670399079087 -0.1890977888003486 -0.08266076994396179 
0 0 0 
0.2858519610523261 0.05801897040221688 -0.3716335451716596 
0 0 0 
-0.03787128178668526 0.2344291363696216 -0.2309382090564422 
0 0 0 
0 0 0 
0 0 0 
-0.07873540804348239 0.006386828627982419 0.07649497712415158 
0 0 0 
0.5126833246943402 -0.5286716159208821 0.00403899211686441 
0 0 0 
0 0 0 
0.294043488853408 -0.09031348261703444 -0.2412491806827119 
0.03954649390169016 0.1481112799666664 -0.1409580884970476 
0 0 0 
0 0 0 
-0.03611207264851467 0.2816353778111614 -0.2827310320788274 
0 0 0 
0 0 0 
0.3365350134426521 -0.0678698469102155 -0.2598390048446072 
0 0 0 
0 0 0 
0 0 0 
0 0 0 
0 0 0 
0 0 0 
0.1803135953653591 -0.6958102721105324 0.5083335720837766 
-0.3042335544564159 0.3024898151456991 -0.03576518978838646 
0 0 0 
0 0 0 
-0.2469575899650264 0.1785607619811614 0.03273934086773233 
0 0 0 
0 0 0 
0 0 0 
0 0 0 
-0.4199782901274032 0.3586315057513799 0.05136724837734409 
0 0 0 
0 0 0 
-0.2040426346395633 0.1563556419480789 0.01910261004632847 
0.2051538315447973 -0.2964532030817503 0.06977005259345646 
0 0 0 
0 0 0 
0 0 0 
0 0 0 
0 0 0 
0 0 0 
0 0 0 
0 0 0 
0.1686723181573261 -0.06121184333466312 -0.0964946407434468 
0 0 0 
-0.1682164546097517 0.5550105741991734 -0.3656781628636603 
0 0 0 
0 0 0 
0 0 0 
0 0 0 
0 0 0 
0 0 0 
0 0 0 
0 0 0 
0 0 0 
-0.0001468678917753203 0.0008852301386058684 -0.001790973515030223 
0 0 0 
-0.1014788384131246 0.06916360927156343 -0.02477207636868408 
0 0 0 
0.4915253074779203 -0.3406190634275685 -0.1185807587988719 
0 0 0 
0 0 0 
-0.05393161835085588 0.1288715994013686 -0.1123092578661644 
0 0 0 
0 0 0 
0 0 0 
0 0 0 
0 0 0 
0 0 0 
-0.1117678968678187 -0.1457451544861515 0.2840312963643798 
-0.01250678177725286 -0.2833811782068528 0.3173280893939457 
0 0 0 
-0.09397759442128852 -0.2363259725965604 0.3322455408590645 
0 0 0 
0 0 0 
0 0 0 
0 0 0 
0 0 0 
0 0 0 
0 0 0 
0 0 0 
-0.4661193161422785 0.0581514734546774 0.4163305403375652 
0 0 0 
0 0 0 
-0.4922424805870721 0.3159144619520886 0.1799065422701767 
-0.3897300491039834 0.330344019400783 0.04106806347745562 
0 0 0 
0 0 0 
0 0 0 
0 0 0 
0 0 0 
0 0 0 
0 0 0 
0 0 0 
-0.06203651793879453 0.02629719033215226 0.03231882918791765 
0 0 0 
0 0 0 
0 0 0 
0.2009006357844637 0.009240200625158221 -0.1685071688915415 
0.4505154608987792 -0.4231249575109061 -0.009384204519443579 
0 0 0 
0 0 0 
-0.2787486464625173 0.246495218789352 0.02767918559101455 
0 0 0 
-0.0262115022024283 0.07520234736755044 -0.05110795547118156 
0 0 0 
0 0 0 
0 0 0 
0 0 0 
0.2089483098979735 -0.5088046851001535 0.3205550548359705 
0 0 0 
0 0 0 
0 0 0 
0 0 0 
0 0 0 
0.1786007816614009 -0.272113983675705 0.05154010619913076 
0 0 0 
0 0 0 
-0.2494726187296769 -0.3163793123441064 0.5261930200368931 
0 0 0 
0 0 0 
-0.6254053559719005 0.3702338081015686 0.2148934845411503 
0 0 0 
0 0 0 
0 0 0 
0 0 0 
0 0 0 
0 0 0 
0 0 0 
0 0 0 
0.03687125778703014 -0.1125940414511473 0.04880035329159119 
0 0 0 
0 0 0 
0 0 0 
0.2427164809874501 0.2292975746945404 -0.4615063993964495 
0 0 0 
0 0 0 
0 0 0 
0 0 0 
0 0 0 
0 0 0 
0.204592189260685 -0.2079712630950073 0.04460915293980489 
0.3305737514987549 -0.4627785220369819 0.1358616566784516 
-0.005419266370819775 -0.03349677585177265 0.01480404445713983 
0 0 0 
0 0 0 
0 0 0 
-0.3380082399732482 0.3357835377136009 -0.01911240920382166 
-0.02111507978542942 0.1830732013996843 -0.1731154609922919 
0 0 0 
0 0 0 
0 0 0 
0.4166759634557143 -0.1030021824756442 -0.3149055695551879 
0 0 0 
0 0 0 
0 0 0 
0 0 0 
0 0 0 
0 0 0 
0.3639334109717727 -0.1511454890820024 -0.1988996986426695 
0 0 0 
0 0 0 
0 0 0 
0 0 0 
0.09818607443867063 0.1749825345837561 -0.2806663763322985 
0 0 0 
0 0 0 
0 0 0 
0 0 0 
0 0 0 
0 0 0 
0 0 0 
-0.1512890680984786 0.1851170664127927 -0.03409910500144039 
0.07314119675354526 0.103165181804532 -0.1527506427824477 
0 0 0 
0 0 0 
0.06917725993992314 0.02120073521145609 -0.06487148628006012 
0 0 0 
0 0 0 
0 0 0 
0 0 0 
-0.1557826453011278 -0.05269018173792671 0.213339972435999 
0 0 0 
0 0 0 
0 0 0 
-0.3259629700976961 0.3954657832313977 -0.04007630979766706 
-0.2680274364227289 0.1162104926249598 0.1577771922787277 
0 0 0 
0 0 0 
0 0 0 
0 0 0 
0 0 0 
0 0 0 
0 0 0 
0 0 0 
0 0 0 
0 0 0 
0 0 0 
0.5759305930925553 -0.1745048403978639 -0.4035370206511664 
0 0 0 
-0.06941336869870697 -0.1512938002824246 0.2119263268680708 
0 0 0 
0 0 0 
0 0 0 
0 0 0 
-0.07361144851282382 0.3361750884983342 -0.2874643712160896 
0 0 0 
0 0 0 
0 0 0 
0 0 0 
0 0 0 
0 0 0 
0 0 0 
0 0 0 
0 0 0 
0 0 0 
0 0 0 
0 0 0 
0 0 0 
0 0 0 
0 0 0 
0 0 0 
0 0 0 
0 0 0 
-0.0880555817963688 0.04240143136159005 0.04483361231811121 
0 0 0 
-0.382428935302588 0.1394066718934459 0.2760744480854398 
0 0 0 
0 0 0 
-0.03802836273507027 0.06183995625849753 -0.02392244585773977 
0.4100425753568303 -0.1931938055764296 -0.1932510425834978 
0 0 0 
0 0 0 
0 0 0 
0 0 0 
0 0 0 
0 0 0 
0 0 0 
0 0 0 
0 0 0 
0.04489254111363634 -0.1480969784997842 0.1247874014347505 
0 0 0 
0 0 0 
0.3309458490716269 -0.04241779496998646 -0.3097905175374865 
0.2322014027151998 -0.3855029685149821 0.1317197264737545 
0 0 0 
0.2417163084292515 -0.09555643897482331 -0.05494974778340445 
0 0 0 
-0.3078980285935248 0.1102048536500142 0.1965585319653239 
0 0 0 
0 0 0 
0 0 0 
0 0 0 
0 0 0 
0 0 0 
0 0 0 
0 0 0 
0 0 0 
-0.2864487331844865 0.0354209185222846 0.2511606365840274 
-0.01466046994971669 -0.01142177607419651 -0.009386764409300431 
0.06318313702562917 0.2133854044213859 -0.2581999521581168 
0 0 0 
-0.1233375643802802 0.2682756381971756 -0.1198486429249717 
0 0 0 
0 0 0 
0 0 0 
0 0 0 
0 0 0 
0 0 0 
0 0 0 
0 0 0 
0 0 0 
0.3066256251151303 -0.3854216022023782 0.1267468386360082 
0 0 0 
0 0 0 
0 0 0 
0 0 0 
0 0 0 
0 0 0 
0 0 0 
0.2295828657795512 -0.5457041543809934 0.3444666592853685 
0 0 0 
0.2044553848768651 0.04876693669140052 -0.2298096411896749 
0 0 0 
0 0 0 
0 0 0 
-0.3966375882453652 0.05201450264479029 0.3648751140642962 
-0.1375006601601397 0.171990503009169 -0.01214921847492378 
0 0 0 
0 0 0 
0 0 0 
0 0 0 
0 0 0 
0 0 0 
0.06475007528333662 -0.1126445927941252 0.04253651223392629 
0 0 0 
0 0 0 
-0.284757515409431 0.1492447422122806 0.1156537503549345 
0 0 0 
0 0 0 
0 0 0 
0 0 0 
0 0 0 
0 0 0 
0 0 0 
0 0 0 
0 0 0 
0 0 0 
0.1386978197286481 0.299387117643425 -0.4612324407673868 
0 0 0 
0 0 0 
0.09375875997498917 -0.175977254155444 0.1014987359701586 
0 0 0 
0 0 0 
0 0 0 
0 0 0 
0 0 0 
0 0 0 
0 0 0 
0 0 0 
0 0 0 
0 0 0 
0 0 0 
0 0 0 
0 0 0 
0 0 0 
0 0 0 
0 0 0 
-0.381138005983213 -0.2700316736490708 0.6343986402765143 
0 0 0 
0 0 0 
0 0 0 
0 0 0 
0.2623912221151005 -0.2793255207233135 0.02366871185600337 
0.607760421460792 -0.8049087200612192 0.2305090790327246 
0 0 0 
0 0 0 
0 0 0 
0 0 0 
0 0 0 
0.1953048991476792 -0.2381196702155471 0.06229669803321185 
0 0 0 
-0.4325080125589355 0.789774735977911 -0.3254874872550599 
-0.02749671177185815 -0.4135810370146935 0.4825760985783557 
0 0 0 
-0.1325701250871992 -0.03708409474612741 0.1849676977594888 
0 0 0 
0 0 0 
0 0 0 
0 0 0 
0 0 0 
0 0 0 
0 0 0 
0 0 0 
0 0 0 
0 0 0 
0 0 0 
0 0 0 
0 0 0 
0 0 0 
0 0 0 
0.05146564868726082 0.06717294393679137 -0.133115144517044 
0 0 0 
0 0 0 
0 0 0 
0.183745894668729 -0.01201777091416102 -0.1715730726961973 
0 0 0 
0 0 0 
0 0 0 
0 0 0 
0 0 0 
0 0 0 
-0.1497916042235854 -0.1867204054303931 0.3440547985013919 
0 0 0 
0.1397295957855778 -0.09045038124905401 -0.03837271078869086 
0 0 0 
0 0 0 
0 0 0 
0.3881642637228183 -0.741249379093068 0.3504869447604251 
-0.1458683112895947 0.2762135953207605 -0.1717431218699218 
0 0 0 
0 0 0 
0 0 0 
0 0 0 
0 0 0 
-0.0954934698404025 0.1654763251900688 -0.05370034546998444 
0 0 0 
0 0 0 
0 0 0 
0 0 0 
0 0 0 
-0.3758014613690701 0.03395802889177393 0.34481565400187 
0 0 0 
0 0 0 
0 0 0 
0 0 0 
0 0 0 
-0.03242006146337396 -0.02476205272925682 0.05100991260465743 
0 0 0 
0 0 0 
0 0 0 
0 0 0 
0 0 0 
0 0 0 
0 0 0 
0 0 0 
0 0 0 
0 0 0 
0 0 0 
0 0 0 
0 0 0 
0 0 0 
0 0 0 
0 0 0 
0 0 0 
-0.03798766711897236 0.05554827301757147 -0.03194063536058108 
0 0 0 
0 0 0 
-0.1343471595354409 -0.1783931545629671 0.33875837794386 
0 0 0 
0 0 0 
0 0 0 
-0.3021533750270307 0.4542334095408711 -0.1581863642073536 
0 0 0 
0 0 0 
0 0 0 
0 0 0 
0 0 0 
0 0 0 
-0.02462045301677696 -0.7309074534813422 0.8181070926307091 
0 0 0 
0 0 0 
0 0 0 
0 0 0 
0 0 0 
0 0 0 
0 0 0 
0 0 0 
0 0 0 
0 0 0 
0 0 0 
0.03026855632901114 0.219926848024996 -0.266857609516877 
0 0 0 
0 0 0 
-0.1085769240537569 0.08358373479355471 0.003248727644259288 
0 0 0 
0 0 0 
0 0 0 
0 0 0 
0 0 0 
0 0 0 
0 0 0 
0 0 0 
0 0 0 
0 0 0 
0.3013598129161236 -0.6236903585078589 0.3347383748870563 
0 0 0 
0 0 0 
0 0 0 
0 0 0 
-0.09258189226601256 0.218508286858338 -0.1289838863042419 
0 0 0 
0 0 0 
0 0 0 
0 0 0 
0 0 0 
0 0 0 
0 0 0 
0 0 0 
0 0 0 
0 0 0 
0 0 0 
-0.2532489762970526 0.2436660842537267 0.02002232721984196 
0 0 0 
-0.04181036297768371 0.1014493916034491 -0.1212127546068457 
0 0 0 
0.2084636933052056 -0.02947842624432219 -0.2245051358485609 
0 0 0 
0 0 0 
0 0 0 
0 0 0 
0 0 0 
0.3569295268144996 -0.5118398648657138 0.1763130449993799 
0.5942066927254189 -0.3950062084042684 -0.2026187082374166 
0 0 0 
0 0 0 
0.368325701149788 0.1843868465090041 -0.5616383939611465 
0 0 0 
0 0 0 
0 0 0 
0 0 0 
0 0 0 
0.1588107128266258 -0.3021562343116418 0.1867720085408573 
-0.1112855893599931 0.1089568978046751 0.02763701818197585 
0 0 0 
-0.05980906883567286 -0.05185514640928177 0.1274246170492122 
0 0 0 
0 0 0 
0 0 0 
0 0 0 
0 0 0 
-0.1782247574650804 0.2846631939047968 -0.1514499794544865 
0 0 0 
0 0 0 
0 0 0 
0 0 0 
0 0 0 
-0.6039215755234955 0.2683311063084763 0.3292251395299469 
0 0 0 
0 0 0 
0 0 0 
0 0 0 
0 0 0 
-0.02732412003943709 -0.2497616333945089 0.2333282821981358 
0 0 0 
0 0 0 
0 0 0 
0 0 0 
0 0 0 
-0.3154543520505807 -0.1450797587369265 0.478694025867273 
0 0 0 
0.326090941510702 0.107402648339267 -0.4409869084079863 
0 0 0 
-0.2108316184577302 0.05826195794259618 0.1855425185398341 
0.2143816965863636 -0.2689269702623036 0.08576147765129062 
0 0 0 
0.4496652582536656 -0.2315931263212646 -0.2262885921325566 
0 0 0 
0 0 0 
0 0 0 
0.05579837054043529 0.2077919455696464 -0.3116052641387327 
0 0 0 
0 0 0 
0 0 0 
0 0 0 
0 0 0 
0 0 0 
0 0 0 
0 0 0 
0 0 0 
0 0 0 
0 0 0 
0 0 0 
0 0 0 
0 0 0 
0.3234777554593952 -0.1758080321386208 -0.1562693301308025 
0 0 0 
0 0 0 
0 0 0 
-0.01244779014524816 -0.06825646068201549 0.04166625073017644 
0 0 0 
0.05230932967440506 0.3611879744825187 -0.3700770548548002 
0 0 0 
-0.1893316465062535 0.3440616637697462 -0.1619231099168489 
0 0 0 
0 0 0 
-0.6102491166024642 0.5155708748958638 0.06915106909006034 
-0.1301710069353601 -0.1143641127389224 0.2192779582596339 
0 0 0 
0 0 0 
0 0 0 
0.3388632697089334 -0.4263723522655379 0.09061194602745069 
0 0 0 
0 0 0 
0 0 0 
0 0 0 
0 0 0 
0 0 0 
0.4002851494185754 -0.6112993151080347 0.2255963527089101 
0 0 0 
0 0 0 
-0.4040744410445882 0.05514069375596824 0.2996960040447972 
0.004730222025328541 -0.006175333020224633 0.002691124638703666 
0 0 0 
0 0 0 
0 0 0 
0 0 0 
0 0 0 
0 0 0 
0 0 0 
0 0 0 
0 0 0 
0 0 0 
0.2689857703852948 -0.3277835328088196 0.06502772369839949 
0 0 0 
0 0 0 
0 0 0 
0 0 0 
0 0 0 
0 0 0 
0.02088480457307711 0.1784589668933561 -0.2178465253294201 
0 0 0 
0.4745550804684008 -0.2965495161561856 -0.1869821572805516 
0 0 0 
0 0 0 
0.2167597944979938 -0.1296938735978063 -0.0591413447302091 
0.01868347490037909 -0.005015277979694284 0.0153103106153627 
0 0 0 
0.5068954327032505 -0.4325826864425765 -0.06620104683702722 
0 0 0 
0 0 0 
0 0 0 
0.425279998090736 -0.3689013582457523 -0.08252002929119116 
0 0 0 
-0.3175796889696808 0.03701739186300965 0.2610165323594201 
0 0 0 
-0.1927559161983843 0.01938143351002561 0.1405318332953018 
0 0 0 
0.01323455189791964 0.215923391340285 -0.2434888051384465 
0 0 0 
0 0 0 
0 0 0 
0 0 0 
0.1693243796730569 -0.1091074100797891 -0.02860794258949778 
0 0 0 
0 0 0 
0 0 0 
0.03212594617002462 -0.1464952720419613 0.125484302003749 
-0.3572277571711308 0.2811553454407228 0.09482888995762952 
-0.09581035694307408 0.006247236991115447 0.05393812279946636 
0 0 0 
0 0 0 
0 0 0 
0 0 0 
0 0 0 
0.04652449081788488 -0.1122304872098964 0.07543993671807105 
-0.2446501527084191 -0.4095039074545306 0.694686794787813 
0 0 0 
0 0 0 
0 0 0 
0.06458330194360955 0.07219091010463548 -0.1985463557653408 
0 0 0 
0 0 0 
0.1526018633560149 -0.1291910786219281 0.008604458525440884 
-0.3888284105304203 0.3915590258426945 0.001850633049854901 
0.08573793745647966 -0.2059922006681736 0.1390263811496886 
0 0 0 
0 0 0 
0 0 0 
0 0 0 
0 0 0 
0.2322569717411916 -0.3648693332134016 0.1096461272145052 
0 0 0 
-0.1730631582795628 0.1654491270903578 -0.02195456263429455 
0 0 0 
0 0 0 
0 0 0 
-0.5474157494245334 0.4464474433222748 0.02483936612296165 
0.09250528322710744 -0.01549655383459508 -0.07046528692494976 
0 0 0 
0 0 0 
-0.3191448010009104 -0.04043075531934972 0.3015480185637087 
0.2303394143563147 -0.2801012357811368 0.05916072250453534 
0 0 0 
0 0 0 
0.2328093716837117 -0.3871177449696566 0.1969260087517786 
0 0 0 
0 0 0 
0 0 0 
-0.06614580870248751 -0.0331384668646131 0.05296719609994507 
0 0 0 
0 0 0 
0 0 0 
0 0 0 
0 0 0 
-0.4340342539574251 0.9167557914219149 -0.5067884869931779 
0 0 0 
0 0 0 
0 0 0 
0 0 0 
0 0 0 
0 0 0 
0 0 0 
0 0 0 
0 0 0 
0.1268288776972402 -0.09996763101838758 -0.004335072455170051 
0 0 0 
0 0 0 
0 0 0 
0 0 0 
0 0 0 
0 0 0 
0 0 0 
0 0 0 
0.1626734254357082 0.1763697286292941 -0.307586476762248 
0 0 0 
0 0 0 
-0.1052888984389502 -0.09018295150021621 0.2429768607468628 
0 0 0 
0 0 0 
0.4275412508346941 0.02074999913036463 -0.4223412217066622 
-0.2179555705107985 -0.6800657801777755 0.9096262280127684 
0.3436011328900003 0.08745790122659496 -0.4066922285847513 
0 0 0 
0 0 0 
0 0 0 
0 0 0 
0 0 0 
0 0 0 
0 0 0 
0 0 0 
0 0 0 
0 0 0 
0 0 0 
0 0 0 
0.09293559277496205 -0.2288055352360532 0.1622866047949728 
0 0 0 
0 0 0 
0 0 0 
0 0 0 
0.152024690626218 -0.1689769692912052 0.03762800987352291 
-0.35953687432888 0.05240403289457544 0.3392628502171068 
0 0 0 
0 0 0 
-0.1915386753247579 0.05939820331668512 0.1466444198143641 
0 0 0 
0.1259238846544596 0.1009983278015779 -0.2190113507748412 
0 0 0 
0 0 0 
0 0 0 
0.2965736360964327 -0.2200949327834889 -0.07232248415450605 
0 0 0 
0 0 0 
0 0 0 
0.23158294811867 -0.01075244835806573 -0.2885686330220192 
0 0 0 
0 0 0 
0 0 0 
0 0 0 
0 0 0 
0 0 0 
0 0 0 
0 0 0 
0 0 0 
0.0923719679256933 -0.05050545682585135 -0.06235141451061657 
0 0 0 
0.05209023419252649 0.1469651019135794 -0.2021360775246271 
0 0 0 
0 0 0 
0 0 0 
0 0 0 
0 0 0 
0 0 0 
0 0 0 
0.0456731106155501 -0.1532379789377576 0.09188133740969474 
0 0 0 
0 0 0 
0 0 0 
0 0 0 
0 0 0 
0 0 0 
0 0 0 
0 0 0 
0 0 0 
0 0 0 
0 0 0 
0.2107056799714361 -0.2225051877829431 0.03499677472900632 
0 0 0 
0 0 0 
0 0 0 
0 0 0 
0 0 0 
0 0 0 
0 0 0 
0 0 0 
0 0 0 
0 0 0 
0 0 0 
-0.08696041061996959 -0.05000806386586767 0.1408409372633621 
0 0 0 
0 0 0 
0 0 0 
-0.08801156693969475 -0.169734118690384 0.2759092064752544 
0 0 0 
0.1317350066307279 -0.3990711745111669 0.2264300349044852 
-0.106379644930244 0.3500856186858785 -0.2404534546990275 
0 0 0 
0 0 0 
0 0 0 
-0.3552666282765533 0.1940004170816289 0.1312705201105242 
-0.4299682628639341 0.3206838479808967 0.07884335075535268 
0 0 0 
0 0 0 
0 0 0 
-0.2786399670642702 0.2591101733913992 -0.01104963752698641 
0 0 0 
0 0 0 
0 0 0 
0.2949846270730636 -0.6638869873403127 0.3525436487562185 
0 0 0 
0 0 0 
0 0 0 
0.1484440970344996 -0.1304994940877223 -0.03354058725638742 
0 0 0 
0 0 0 
0 0 0 
0 0 0 
-0.438287646680491 0.2968027913682825 0.09009695363621684 
0 0 0 
0 0 0 
0 0 0 
0 0 0 
0 0 0 
0 0 0 
0 0 0 
0 0 0 
0.05252131998801703 -0.2377350469296983 0.2239761537135785 
0 0 0 
0 0 0 
0 0 0 
0 0 0 
0.05524500661228159 -0.1945728948087874 0.1655893148041279 
0.1629643691240164 0.05277950125862611 -0.1831947437011322 
0 0 0 
0 0 0 
0 0 0 
0 0 0 
0 0 0 
0 0 0 
0 0 0 
0 0 0 
-0.2098917380509939 0.09209716034897084 0.1297105979429411 
0 0 0 
0 0 0 
0 0 0 
0 0 0 
0 0 0 
0 0 0 
0 0 0 
0 0 0 
0.4853626469014096 0.04631493580102657 -0.5185001127486191 
0.0503512151822977 -0.106127823059282 0.05190578925253216 
-0.1461201419199207 0.2883280161886556 -0.137516262576522 
0 0 0 
-0.196587198991134 -0.1519325443590647 0.36067261514559 
0 0 0 
0 0 0 
0 0 0 
0 0 0 
0 0 0 
0 0 0 
0 0 0 
0.3282162424102901 0.02991764869896767 -0.3492056275564847 
0 0 0 
-0.1226332125864402 0.2385866560886201 -0.08696389735870046 
0 0 0 
0 0 0 
0 0 0 
0 0 0 
0 0 0 
0 0 0 
0 0 0 
-0.1569725323595077 -0.00554528738549132 0.1700171990275199 
0 0 0 
0.2152706355797132 -0.2349564259175465 0.01053365285571002 
0 0 0 
0 0 0 
0 0 0 
0 0 0 
0 0 0 
0 0 0 
0 0 0 
0 0 0 
0 0 0 
0 0 0 
0 0 0 
0 0 0 
0 0 0 
0.06316017424315312 0.1483644296448318 -0.2387263324040005 
0 0 0 
0 0 0 
-0.4153186747003388 0.02023836128030487 0.3852695834390795 
0 0 0 
0 0 0 
0.2302598942795464 0.04793208972352469 -0.3142985335229361 
0 0 0 
0 0 0 
-0.271539190964067 -0.003681194968673723 0.3124678129078974 
0.1583965883068341 -0.1832116244752469 0.0262875397367724 
0.2599359184527355 -0.2716898558876056 0.05304890811548601 
0 0 0 
0 0 0 
0 0 0 
0.08849337790887188 -0.3195374764586977 0.2106172510930467 
0 0 0 
0 0 0 
0 0 0 
0 0 0 
-0.1892697212155744 0.1035257770578112 0.04828356667826434 
-0.1098908260877298 0.4912814436243549 -0.3914271867147137 
0 0 0 
0 0 0 
0 0 0 
-0.2646517269822063 0.3667767097727684 -0.0739278353610104 
0 0 0 
0 0 0 
0 0 0 
-0.275663536454269 -0.1709151748435435 0.4111030096806685 
0 0 0 
0 0 0 
-0.2449867231414459 0.3946798210263056 -0.1596613093018507 
0 0 0 
0 0 0 
0 0 0 
0 0 0 
0 0 0 
0 0 0 
-0.2057314933262753 -0.04877263045367072 0.2510529491815774 
0 0 0 
0 0 0 
0 0 0 
0 0 0 
0 0 0 
0.1672424626904218 0.1847341935638059 -0.3241921066614973 
0 0 0 
0 0 0 
0 0 0 
0 0 0 
0 0 0 
0 0 0 
0 0 0 
0 0 0 
0 0 0 
0 0 0 
0 0 0 
0 0 0 
0 0 0 
0 0 0 
0 0 0 
0 0 0 
0 0 0 
0 0 0 
0 0 0 
-0.1296773609966963 -0.07677641686435548 0.2235941484682276 
0 0 0 
0 0 0 
0 0 0 
0 0 0 
0.1012108206220164 0.03191394112111553 -0.176356896572309 
0 0 0 
0.1067885818378618 0.02046442689595887 -0.1085552079355763 
0 0 0 
0 0 0 
0 0 0 
0 0 0 
0 0 0 
0 0 0 
0 0 0 
0 0 0 
0.2953278641932696 -0.4190170912324724 0.1180949736534302 
0 0 0 
0 0 0 
0 0 0 
0.175723743324335 -0.1860208898253958 0.005126537344325022 
0 0 0 
-0.1565929387454987 0.1448422319339837 -0.02908439680716907 
0 0 0 
0.1176937752457021 -0.1387821298418628 0.03598293317755536 
0.1119848802850417 0.06452956429938585 -0.1698561126367387 
0 0 0 
0 0 0 
0 0 0 
0 0 0 
0 0 0 
0 0 0 
0 0 0 
0 0 0 
0 0 0 
0 0 0 
0 0 0 
0 0 0 
0 0 0 
0 0 0 
0 0 0 
0 0 0 
0 0 0 
-0.5172547979252073 0.3453119806091736 0.1681427945413604 
0 0 0 
-0.128011445695326 -0.04420078455693055 0.153199577695666 
0 0 0 
0 0 0 
0 0 0 
0 0 0 
0 0 0 
0 0 0 
0 0 0 
-0.06578940521600242 0.2197002593523751 -0.1838457246411059 
0 0 0 
0 0 0 
-0.2927943236370677 -0.003699720329790671 0.3322826473128885 
-0.03554287920799874 -0.04741511859512035 0.09814535272241087 
0 0 0 
0 0 0 
0 0 0 
0 0 0 
-0.2664237699953674 -0.06496671451010574 0.3305274241877237 
0 0 0 
-0.2514328553386295 -0.04350686535292132 0.263491657727359 
0 0 0 
0 0 0 
0 0 0 
0 0 0 
0.00362202528689438 0.4782380890660435 -0.494666533298717 
0 0 0 
0 0 0 
0.1003805700241803 0.2603501607333762 -0.3331116887566164 
0 0 0 
0 0 0 
0 0 0 
0 0 0 
0 0 0 
0.2442882552776714 -0.4418123698449714 0.1447765927237693 
0 0 0 
0.08599574701342266 -0.1602652396689804 0.05138583417875047 
-0.2894431003494075 0.1273396492483105 0.1155084050087886 
0 0 0 
0 0 0 
0 0 0 
0 0 0 
0 0 0 
0 0 0 
0 0 0 
0 0 0 
0 0 0 
0.3463798648819525 0.0889118993160193 -0.4124384221400426 
0.2825220209949368 0.05922008377092192 -0.3542370904303364 
0 0 0 
0 0 0 
0 0 0 
0 0 0 
0 0 0 
0.1611679073592951 -0.00809394377227844 -0.183274472643489 
0 0 0 
0 0 0 
0 0 0 
0 0 0 
0.2916228978080007 -0.6175897117573297 0.3546581574807595 
0.1387495720896813 0.02301990793503388 -0.1718151224194309 
0 0 0 
0.00805413339482439 0.1547342197705648 -0.1478460076858814 
0.2096639286039691 -0.1648962147751484 -0.04456750490168937 
0 0 0 
0.1032306341931712 -0.4020122287896726 0.3009214520537357 
0 0 0 
0 0 0 
0 0 0 
0.01425640775319381 -0.0961671093126451 0.08352352791220155 
0 0 0 
0 0 0 
0 0 0 
0 0 0 
-0.0457126836466006 0.03536885144120815 0.004898405153409911 
0 0 0 
-0.1347846879156619 0.1368686777764889 -0.01601961122069878 
-0.2997078775148193 0.2430682242145993 0.04440920216644065 
0 0 0 
0 0 0 
0 0 0 
0 0 0 
0 0 0 
0 0 0 
-0.08928728213382608 0.2655721556935083 -0.2008243194041879 
-0.04657272880675924 0.6096586816865162 -0.5585816164213936 
0 0 0 
0.3976541107081622 0.01914260062343508 -0.371055721921361 
0 0 0 
0 0 0 
0.1515533209962748 -0.217611803247586 0.02837068627711871 
0 0 0 
0 0 0 
-0.2329940118974463 0.1265270852846395 0.07793766482677555 
0 0 0 
-0.05073609944003146 0.03761656546621345 0.01190939067402449 
0 0 0 
0 0 0 
0 0 0 
0 0 0 
0.0997662531168461 -0.2592972228767961 0.1836693596867237 
0 0 0 
0 0 0 
0 0 0 
0 0 0 
0 0 0 
-0.1973755422948133 0.2183893320132752 -0.02300443471559181 
0 0 0 
0 0 0 
0 0 0 
0 0 0 
0 0 0 
0 0 0 
0 0 0 
0 0 0 
0 0 0 
0 0 0 
0 0 0 
0 0 0 
-0.5549709880064935 0.5421868169281743 -0.02264937203587563 
0 0 0 
-0.03708610189363947 0.03880208280439842 0.007438763221961162 
0 0 0 
0 0 0 
0.2538047258957738 -0.5702656443098129 0.3237578890598563 
0 0 0 
0.1598878215305269 -0.1093505347887624 -0.05611041998142751 
0 0 0 
0 0 0 
0 0 0 
0 0 0 
0.02237248038951921 0.04203248855321113 -0.05842276872788776 
0 0 0 
0 0 0 
0 0 0 
0 0 0 
-0.8975996229867574 0.5918362046587379 0.2859072460871305 
0 0 0 
0 0 0 
-0.1274552081445521 0.4103848617883448 -0.2781922180573466 
-0.1872779536453933 0.03907153773110843 0.08482505453382666 
-0.01192004991672267 -0.1623898086930268 0.2036783232179985 
0.2243695207856707 -0.7330783266524246 0.5077477628414471 
0 0 0 
0 0 0 
-0.02051274177406756 0.1865554049689055 -0.1919730997118723 
0 0 0 
0 0 0 
0 0 0 
-0.03913039648030359 -0.4697196626316146 0.5428141532510877 
0.07599767077868694 -0.2527950375117621 0.1746871654810676 
0 0 0 
0 0 0 
0 0 0 
0 0 0 
0.05396119857555367 -0.3766347633843951 0.3152242544521837 
-0.01698320958992798 0.1592937870720283 -0.147232680231511 
0.162902296515906 -0.002809542118262818 -0.1876559685618385 
0 0 0 
0 0 0 
0 0 0 
0 0 0 
0 0 0 
0 0 0 
0 0 0 
0.2930207236458639 -0.2771333482704206 -0.001934174271752452 
0 0 0 
0 0 0 
0 0 0 
0 0 0 
0 0 0 
-0.2047787703981984 0.2570625214411032 -0.09039199792708238 
0 0 0 
0 0 0 
0 0 0 
0 0 0 
0 0 0 
0 0 0 
0 0 0 
0 0 0 
0.07080650850237898 -0.08647294583016041 0.0100972087095827 
0 0 0 
0 0 0 
0 0 0 
0 0 0 
0.4192130619050796 -0.4181633025217572 0.03745190128507508 
0 0 0 
0.02811378031165609 0.08645301616400448 -0.0931517336750889 
0 0 0 
0 0 0 
0 0 0 
0 0 0 
0 0 0 
-0.04600914874757553 0.431384439985955 -0.426367143774821 
0 0 0 
0 0 0 
0 0 0 
-0.2654037246668514 -0.1419945968823881 0.3903858451858944 
0 0 0 
-0.344404034619929 0.4374842737330551 -0.1232389894094014 
0 0 0 
0 0 0 
0 0 0 
0 0 0 
0 0 0 
0 0 0 
0 0 0 
0 0 0 
0 0 0 
0 0 0 
-0.1978136477386143 0.03794979116889834 0.1960442764717428 
0.4034900185517625 -0.6327793467799071 0.2606491564921268 
0 0 0 
-0.1683911763194582 -0.1196232699463637 0.3094576861579719 
0 0 0 
0.2044465515524083 -0.4313391687885124 0.2354776389080517 
0 0 0 
0 0 0 
0 0 0 
0 0 0 
0 0 0 
-0.02008495347141006 -0.1446078513217329 0.1708656814362929 
0.1332881655338799 -0.3959046895073587 0.2887504570917431 
0 0 0 
-0.06405974679179308 0.6049838011803658 -0.5708779170652742 
0 0 0 
0 0 0 
0.4226999703524068 -0.4287896723758347 0.03340092734996029 
-0.1953265653279818 0.1784003518053135 0.0465417587554325 
0 0 0 
0 0 0 
0 0 0 
0 0 0 
0 0 0 
0 0 0 
0 0 0 
0 0 0 
0 0 0 
0 0 0 
0 0 0 
0 0 0 
0 0 0 
0 0 0 
0 0 0 
0 0 0 
0.2613957590329908 -0.6221955807281979 0.358506829893977 
0 0 0 
0 0 0 
0 0 0 
0 0 0 
0 0 0 
0 0 0 
0 0 0 
0 0 0 
0 0 0 
0 0 0 
0 0 0 
0 0 0 
0.2568345368618522 -0.4753215670072767 0.2003908168795165 
0 0 0 
0 0 0 
0 0 0 
-0.1508040893772678 0.1927215232669323 -0.08064355500238271 
0.3924481172154772 -0.3848874130428139 0.03044415979046662 
0 0 0 
0 0 0 
0 0 0 
0 0 0 
0 0 0 
-0.04510142500240879 -0.422033487892902 0.4445224004018178 
0 0 0 
0 0 0 
0 0 0 
0 0 0 
0 0 0 
0 0 0 
0 0 0 
0 0 0 
0 0 0 
0 0 0 
0 0 0 
0 0 0 
0 0 0 
0 0 0 
0 0 0 
-0.02005884307394045 -0.04859878490629106 0.05075280338376171 
0.1170411973497417 0.1631269637283946 -0.2623796619423404 
0 0 0 
0.128363487480503 -0.482858065387167 0.3783786899079313 
0 0 0 
0 0 0 
0 0 0 
0 0 0 
0 0 0 
0.1395969563296452 0.1245076656657439 -0.302410736669298 
-0.02929077252069238 0.02559217199655941 -0.008551952277422857 
-0.1762073839911281 0.4072896461917668 -0.1812055960815437 
0 0 0 
0 0 0 
0 0 0 
0 0 0 
0 0 0 
0.1373904898463575 0.1453106422424028 -0.2817527352295976 
0 0 0 
-0.3068000299148332 0.6301678201477372 -0.3341544972873166 
-0.02279195874847191 -0.5208455123067981 0.5765255447942773 
0 0 0 
0 0 0 
-0.3029952115330045 -0.005612761474063559 0.3380548210206215 
0 0 0 
0 0 0 
0 0 0 
0 0 0 
0 0 0 
0 0 0 
0 0 0 
0 0 0 
0 0 0 
0 0 0 
0.1941132338023632 -0.251273960083079 0.0695585230793862 
0 0 0 
0 0 0 
0 0 0 
0 0 0 
0 0 0 
-0.02856433572717457 0.09922452219768114 -0.01860019038669332 
0 0 0 
-0.02612993439772425 -0.02620599712811084 0.07009342067142516 
0 0 0 
0 0 0 
0 0 0 
0 0 0 
0 0 0 
0 0 0 
0 0 0 
0.01873140770015523 -0.2158084912055219 0.1840137056346017 
0 0 0 
0 0 0 
0 0 0 
0 0 0 
-0.5050114777906998 0.3456875546362118 0.09807929104677282 
0 0 0 
0 0 0 
0.2079133669045336 -0.3773643557010634 0.1987240714056563 
0 0 0 
0 0 0 
0 0 0 
0 0 0 
-0.354891477684301 0.09571246159027742 0.2204102617932742 
0 0 0 
0.001000239511348444 -0.3809068795992612 0.384106147664848 
0 0 0 
0 0 0 
-0.006285128296171856 -0.1194612408556002 0.1541694588232976 
-0.02205618876442811 0.02472904696073992 0.02658287425671677 
0 0 0 
-0.6063810355350254 0.2112418529512075 0.3747744593680241 
0.03745085416055215 -0.1764734114068657 0.1631152896527397 
-0.03576574357067883 -0.1664237945835382 0.2341390396081841 
-0.0277239174752269 0.09235200537912822 -0.04036331660398119 
0 0 0 
0 0 0 
0 0 0 
0 0 0 
0 0 0 
0 0 0 
0 0 0 
0.5665425074439752 -0.2508119128791994 -0.2723899150225423 
0 0 0 
0 0 0 
0 0 0 
0 0 0 
0 0 0 
0.0289978293507561 0.1108706389481619 -0.14674218492721 
-0.1350024243654878 -0.11330598085322 0.2387505499530822 
0 0 0 
0 0 0 
0 0 0 
-0.3005793030458514 0.5615404897525201 -0.248854333032233 
0 0 0 
0 0 0 
-0.04772670901939242 -0.3510103750368553 0.3952487742466755 
0 0 0 
0 0 0 
0 0 0 
0 0 0 
0 0 0 
0 0 0 
-0.004280516242404065 -0.07889672664803458 0.07670925472841238 
0 0 0 
0 0 0 
-0.2161395459311099 -0.2898397207614953 0.5279471632249481 
0.03297147446399494 -0.05228313729822892 0.04941523625183874 
0 0 0 
0 0 0 
-0.005814139432548347 -0.3327055476941602 0.3363393335708856 
0 0 0 
-0.03344313715667825 -0.2201388647279588 0.2537594890418403 
0 0 0 
-0.1967394284999665 0.5352191435359337 -0.3961793274937651 
0 0 0 
0 0 0 
0 0 0 
0 0 0 
0 0 0 
0 0 0 
0 0 0 
0 0 0 
0 0 0 
0 0 0 
0 0 0 
-0.1138132456425443 0.210644214163173 -0.1212387272962808 
0.02163046121130711 0.1830232901648756 -0.186026721105338 
0.04472934557940746 -0.3009701964847367 0.2479677699495476 
0.2837017144185652 -0.2580265795423852 -0.05609836113570215 
0 0 0 
0 0 0 
0.2089590661748979 0.02656288941442714 -0.2546783217343466 
0 0 0 
0 0 0 
0.266900445819463 -0.1766845360259054 -0.04627248414185704 
0 0 0 
0.0100877154133845 -0.1163001924145841 0.09757142860457461 
0 0 0 
0 0 0 
0 0 0 
0 0 0 
0.1197569138141196 0.05180992669968518 -0.1992105613774004 
0 0 0 
0 0 0 
0 0 0 
0 0 0 
0 0 0 
0 0 0 
0 0 0 
0 0 0 
0 0 0 
0 0 0 
0.08688139803900759 -0.04867510445683385 -0.01761234169417189 
0 0 0 
0 0 0 
0 0 0 
0.360853663787396 -0.4073728827400447 0.07328086450649493 
0 0 0 
0 0 0 
0 0 0 
0 0 0 
-0.1337259325034001 0.270858363914658 -0.1517660451981596 
0 0 0 
-0.1395246956945311 0.2453509430230365 -0.09410226908379636 
0.01023903567304111 -0.002750572533823839 -0.008795607853212673 
0 0 0 
0 0 0 
0 0 0 
0 0 0 
0 0 0 
0 0 0 
0 0 0 
0 0 0 
-0.04424767252139407 0.3236544948307077 -0.2761268249179965 
0 0 0 
-0.06966715043745292 -0.129209526112463 0.2227077923301241 
0 0 0 
-0.3314022919623812 -0.0716214152897003 0.3823433237446109 
0 0 0 
0 0 0 
0 0 0 
0 0 0 
-0.1533021473563997 0.3419063772593959 -0.1947057123049643 
0 0 0 
-0.694490423617153 0.3220451756764713 0.3800916328565609 
0.1779586114455 -0.3289290539961541 0.1604777906731582 
0 0 0 
0 0 0 
-0.4527155987718639 0.31823036634449 0.1101728598245412 
0 0 0 
0 0 0 
0 0 0 
0 0 0 
0 0 0 
0 0 0 
0 0 0 
0 0 0 
0 0 0 
0 0 0 
0 0 0 
0 0 0 
0 0 0 
0 0 0 
0 0 0 
0 0 0 
0 0 0 
0 0 0 
0 0 0 
0 0 0 
0 0 0 
0 0 0 
0.1369358605773983 0.09270971962651189 -0.2417356413231766 
0 0 0 
0 0 0 
0 0 0 
-0.02725001896180575 0.1937590881708446 -0.1660369965129979 
0.3598420635301427 -0.4563052863898081 0.1570217490737754 
0 0 0 
0 0 0 
0 0 0 
0 0 0 
0 0 0 
0 0 0 
0 0 0 
0 0 0 
0 0 0 
0 0 0 
0 0 0 
0 0 0 
-0.005071867170162705 -0.3703093118768498 0.4342023395977245 
0 0 0 
0 0 0 
0 0 0 
0 0 0 
0 0 0 
0 0 0 
0 0 0 
0 0 0 
0 0 0 
0 0 0 
0 0 0 
0 0 0 
-0.05039061126082222 0.2081022831633525 -0.1732745474267913 
-0.6241999082030377 0.6474368184990097 -0.03829591850476895 
0 0 0 
0.05204242649697138 -0.1135612794581156 0.05905163509209355 
0 0 0 
0 0 0 
0 0 0 
0 0 0 
0 0 0 
0 0 0 
0 0 0 
0 0 0 
-0.2688569247098408 -0.1360386079564092 0.3975693947250281 
0.2235034676346553 -0.4242859088807047 0.180712136248182 
0.02881537649504657 0.542274349203097 -0.569188805496833 
0 0 0 
0 0 0 
0 0 0 
0 0 0 
0.2204993285725358 -0.1565758577527343 -0.02952109681338156 
0 0 0 
0 0 0 
0 0 0 
-0.6605320519877796 0.4217691344259877 0.2302939242060981 
0 0 0 
0 0 0 
0 0 0 
0 0 0 
0 0 0 
-0.1487501230862659 -0.2767441382989119 0.4507992513071953 
0 0 0 
-0.147935600919825 0.2085671681816829 -0.03681225633160615 
0 0 0 
0 0 0 
0 0 0 
0 0 0 
0 0 0 
0 0 0 
0 0 0 
0 0 0 
0 0 0 
-0.3787920715115266 0.1221176686663133 0.1654881183649959 
0 0 0 
0 0 0 
-0.3463912090799692 0.5749083573120948 -0.2651224711140526 
0 0 0 
0 0 0 
0 0 0 
0 0 0 
0.330423689760368 -0.2535943127799243 -0.07039286558608754 
0 0 0 
0 0 0 
0 0 0 
0 0 0 
0 0 0 
0 0 0 
0 0 0 
0 0 0 
-0.2222962618292238 0.1938836438990473 0.03097586426396506 
0 0 0 
0 0 0 
0 0 0 
0 0 0 
0 0 0 
0 0 0 
-0.105565967731147 0.3450289886578149 -0.2604498209914559 
0 0 0 
0 0 0 
0 0 0 
0 0 0 
-0.1900793822007633 -0.02514616225803893 0.2406378479479644 
0 0 0 
0 0 0 
0.2608225108929315 -0.0169309738517519 -0.1824301722318784 
0 0 0 
-0.4588836120112186 0.2186741928845678 0.2031489458397171 
-0.09098809665197492 0.2139126961036208 -0.1603929319746672 
0 0 0 
0 0 0 
0 0 0 
0 0 0 
0 0 0 
-0.08602941107949214 -0.3216086178022394 0.3997024150720843 
0 0 0 
0 0 0 
0.3500457535267367 -0.1946934743601958 -0.1261041539192518 
0 0 0 
0 0 0 
-0.01917237879309599 -0.1009239047173061 0.08685847496556059 
0 0 0 
0 0 0 
0 0 0 
0 0 0 
0 0 0 
0 0 0 
0 0 0 
0.3904758835862341 -0.1141936655798034 -0.2915966395162802 
0 0 0 
0 0 0 
0 0 0 
0 0 0 
0 0 0 
0 0 0 
0 0 0 
0.1744583563693939 -0.1248363610193031 -0.0521492425543846 
-0.2609793401775936 0.2141984652524975 0.02525468318656019 
0 0 0 
-0.3384136526404999 -0.0135159699346177 0.3230585306464233 
0 0 0 
0 0 0 
0 0 0 
0 0 0 
0 0 0 
0 0 0 
0 0 0 
0 0 0 
0 0 0 
0.2424893008458934 -0.1220943977571079 -0.1362527808921293 
0 0 0 
0 0 0 
0 0 0 
0 0 0 
0 0 0 
0 0 0 
0 0 0 
0 0 0 
0 0 0 
0 0 0 
0 0 0 
0 0 0 
0 0 0 
0 0 0 
0 0 0 
-0.02875218686648946 0.1017158629166385 -0.05116355281066236 
0 0 0 
0 0 0 
0 0 0 
0 0 0 
0.2594580060880645 0.07593436494927545 -0.3125468046956889 
0 0 0 
-0.1286151239822038 0.3563022076210864 -0.2251458509586828 
0 0 0 
0 0 0 
0 0 0 
0 0 0 
0 0 0 
0 0 0 
0 0 0 
0 0 0 
0 0 0 
0 0 0 
0 0 0 
0 0 0 
0 0 0 
0 0 0 
0.0005991807095692066 -0.01745653601051192 0.008761028157979963 
0 0 0 
0 0 0 
0 0 0 
0 0 0 
0 0 0 
-0.125154228026768 0.1474930316563848 -0.06396409335399494 
0 0 0 
0 0 0 
-0.02619842077918471 -0.1554488822097701 0.2109916116388897 
0 0 0 
0 0 0 
0 0 0 
0 0 0 
0.2595508095198434 -0.3091709424566907 0.06382811703758287 
0 0 0 
0 0 0 
0 0 0 
-0.2814930530262739 0.4611370659263139 -0.1451443334340462 
0 0 0 
0 0 0 
0 0 0 
0 0 0 
0 0 0 
0.1102438575502922 0.2072264861668451 -0.3349516941064165 
0 0 0 
0 0 0 
0 0 0 
0 0 0 
-0.02547450157658255 -0.13975751361167 0.1395935893910638 
0.2566808016533098 -0.02756004190182074 -0.2298966188871453 
0.2438601304178654 -0.2332249948094985 0.01260222333292836 
0 0 0 
0 0 0 
0 0 0 
0 0 0 
0 0 0 
0 0 0 
0 0 0 
0.001020706476602835 0.1663555718161605 -0.1955921868819591 
0 0 0 
0 0 0 
0 0 0 
0 0 0 
0 0 0 
0 0 0 
0 0 0 
0.2370366884117603 0.0350837103392193 -0.3058808403288205 
0 0 0 
0 0 0 
0 0 0 
0 0 0 
0.1966369670264848 -0.4191273700776872 0.2434808863869331 
-0.2323237694570979 -0.4327981838289481 0.6760581591822316 
0.1402574906608884 -0.1954643489448034 0.05460146433084573 
0 0 0 
0 0 0 
0 0 0 
0 0 0 
0.2819912235090378 -0.2073249678885334 -0.0214340960871723 
-0.3987676965145713 0.1272415229433392 0.2887790227801686 
0 0 0 
0 0 0 
-0.1700988983046277 0.08719578704207667 0.1035382526546904 
0 0 0 
0 0 0 
0 0 0 
-0.1142263114419672 -0.1852097598299701 0.2877298569640957 
0 0 0 
0 0 0 
0 0 0 
0 0 0 
0 0 0 
0 0 0 
0 0 0 
0 0 0 
0.2089140054741578 -0.01423029936119185 -0.1903816096915888 
0 0 0 
0.06203229796124429 -0.2162433399153445 0.1588811477514732 
0 0 0 
0 0 0 
-0.4484124964920764 0.7320311536176883 -0.3198126447029465 
0.2383535108403871 -0.3722112425567514 0.1208212858763675 
0 0 0 
0 0 0 
0 0 0 
0.312554520982009 -0.167532606254088 -0.1622157554652676 
0 0 0 
-0.6827038392033492 0.5999363169543355 0.1024008110904607 
0 0 0 
0 0 0 
-0.5557524552077412 0.06904533328584013 0.5133617138450727 
0 0 0 
0 0 0 
0.06944146085836997 -0.04678047013056452 0.01679325323272486 
0 0 0 
0 0 0 
0 0 0 
0 0 0 
0 0 0 
0.5472416279767712 -0.8333330150943632 0.3084351159225295 
0.0627621836906392 0.1990768312934009 -0.248060464329137 
0 0 0 
-0.2159157701700173 0.2077709720058351 -0.0008889185609515365 
0 0 0 
0 0 0 
0 0 0 
0 0 0 
0 0 0 
0.1422544618809085 -0.1864024283114704 0.02240434802797565 
0 0 0 
0 0 0 
-0.4132832204917901 0.2175120545649535 0.2180688520673767 
0 0 0 
0 0 0 
0 0 0 
0 0 0 
-0.1779206031243271 0.2331336444893417 -0.04284941147614719 
0.4768718929112261 -0.1062875531749665 -0.3368074937292275 
0 0 0 
0 0 0 
0.2608060636555405 -0.08629081337151258 -0.2012816275210034 
0 0 0 
0 0 0 
0 0 0 
0.5102265840259486 -0.325790445791464 -0.1859549753370224 
-0.07002674559378708 0.2156486335328884 -0.1714290450588053 
0.1993220044947595 -0.493131448065211 0.287465170617643 
0.1546686287530193 -0.03365696683625129 -0.1173624877446347 
0 0 0 
0 0 0 
0 0 0 
0 0 0 
0 0 0 
0 0 0 
0 0 0 
0 0 0 
0 0 0 
0.1701723501545047 0.2347655639084775 -0.419884318949654 
0 0 0 
0 0 0 
0 0 0 
0 0 0 
0 0 0 
0.3573551588778959 -0.1611094146401984 -0.1900814160976207 
0 0 0 
0 0 0 
0 0 0 
0 0 0 
0 0 0 
-0.1165766377661556 0.4744993610500895 -0.311621173357232 
-0.6337186659890205 0.4329297505241523 0.1720031471672613 
0 0 0 
0 0 0 
0 0 0 
-0.6050129888391257 0.1747000475571991 0.41862626837329 
0 0 0 
0 0 0 
0 0 0 
0 0 0 
0 0 0 
0 0 0 
0 0 0 
0 0 0 
0 0 0 
0 0 0 
0 0 0 
0 0 0 
-0.3608739111701127 0.09160366152891826 0.2805975861619804 
0 0 0 
0 0 0 
0 0 0 
0 0 0 
0 0 0 
0 0 0 
0 0 0 
0 0 0 
0 0 0 
0 0 0 
0 0 0 
0 0 0 
0 0 0 
0.2084093962347522 -0.3180330897224659 0.146370417677515 
0.06751045444665439 0.1944491725710973 -0.2669126462972728 
0 0 0 
0 0 0 
0 0 0 
-0.3016078447960529 0.2326114932099233 0.01192365871106828 
0 0 0 
0 0 0 
0.2063933480049951 -0.7934280356606098 0.6010026744942838 
0 0 0 
0 0 0 
0 0 0 
0 0 0 
0 0 0 
0 0 0 
0 0 0 
0 0 0 
0 0 0 
0 0 0 
-0.09835697577026571 0.08173127566368034 -0.001380302191423969 
0 0 0 
0 0 0 
0 0 0 
0 0 0 
-0.45443249017731 0.05805852455533937 0.4091521945758097 
0 0 0 
-0.3210957367690312 0.3654414634975807 -0.04014292186881634 
0.2643310414288485 -0.5909042359751709 0.3087082395852745 
0 0 0 
0 0 0 
-0.3245719829563018 0.03692089548378865 0.2274647402920505 
-0.1802327038530173 0.228629158143689 -0.03715555039467563 
0 0 0 
0 0 0 
0 0 0 
-0.3466316264012353 0.4790200367343704 -0.1201919643954044 
-0.2084157439622311 0.1869764892501818 0.05910460717163081 
-0.002465424742828318 0.3762365592174372 -0.378123152873126 
0 0 0 
0 0 0 
0.1702630748689558 0.04306002270374911 -0.1904074067634674 
0 0 0 
0 0 0 
0 0 0 
0 0 0 
0 0 0 
0 0 0 
0 0 0 
0 0 0 
0 0 0 
0.2313366479943754 -0.206848218145776 -0.01052576903852011 
0 0 0 
0 0 0 
0 0 0 
0 0 0 
-0.6233746100806334 0.587301849348465 -0.006823114891190379 
0 0 0 
0 0 0 
0 0 0 
0 0 0 
0 0 0 
0 0 0 
0 0 0 
-0.004814178908291182 0.2300973000542678 -0.2329641107115847 
0 0 0 
0 0 0 
0 0 0 
0 0 0 
0.1387607786850019 -0.1301573154695632 0.03325128709689177 
0 0 0 
0 0 0 
0 0 0 
0 0 0 
-0.227426069377047 0.6626817510940972 -0.5175884270593232 
0.1169839833723889 0.05802866446320598 -0.2015225470813412 
0 0 0 
0 0 0 
0 0 0 
0.2508813292770723 0.07977151120564896 -0.3063676451325194 
0 0 0 
0 0 0 
0 0 0 
0 0 0 
0 0 0 
0 0 0 
-0.07517552887721929 -0.008655270060744883 0.08899452348941088 
0.2705747244025289 0.2964311044352502 -0.5577348344561418 
-0.1460029680939599 0.08354340324011414 0.04632122091236116 
0 0 0 
0 0 0 
0 0 0 
0 0 0 
-0.1645404973281488 0.1484195862565605 0.005014770796759737 
0 0 0 
0 0 0 
0 0 0 
0 0 0 
-0.2901353231859555 -0.01057157779925764 0.3124951790109868 
0 0 0 
0 0 0 
0 0 0 
0 0 0 
0 0 0 
0 0 0 
0 0 0 
0.003413154660348343 -0.2018808385996776 0.2227967144218046 
0 0 0 
0 0 0 
0 0 0 
0 0 0 
-0.410361224021322 -0.04952102133997166 0.4454200945317416 
0 0 0 
-0.03463623619706339 -0.2999065731725393 0.3363102350647235 
0 0 0 
0 0 0 
0.1991656233000641 0.04872119318041363 -0.2250093293526699 
0 0 0 
0.006576916937442104 0.0774104641142777 -0.1175813105163134 
0 0 0 
0 0 0 
0 0 0 
0.2794410333296126 -0.1571253884012349 -0.1302019154435037 
0 0 0 
-0.3711955164294735 -0.1405889217994014 0.4659157512509744 
0.05104679677853947 0.1738736828153682 -0.2077777408156878 
0 0 0 
0 0 0 
0 0 0 
0.2309477011574332 -0.06971339903445092 -0.216825402677722 
0 0 0 
-0.1051440851446735 0.2941698151732871 -0.2076794313211583 
0 0 0 
-0.008042290183469374 -0.1645042824136904 0.1687291709457978 
0.1198909731209678 0.07312051052061951 -0.1716026031449839 
0 0 0 
0 0 0 
0 0 0 
0 0 0 
0 0 0 
0 0 0 
0 0 0 
0 0 0 
0.07425467936927899 -0.3894752627355156 0.3358512835583061 
0 0 0 
0 0 0 
0 0 0 
0 0 0 
0 0 0 
0 0 0 
0 0 0 
0 0 0 
0 0 0 
0 0 0 
0 0 0 
0 0 0 
0 0 0 
0 0 0 
0 0 0 
0 0 0 
0.2333017425544665 -0.08461009493069888 -0.1292067880678931 
0 0 0 
-0.1534947771660004 -0.143692979344057 0.2757238237821406 
0 0 0 
0 0 0 
0 0 0 
0.1987319124049708 -0.1474425858507615 -0.06436433565914589 
0 0 0 
0 0 0 
0 0 0 
0 0 0 
0 0 0 
0 0 0 
-0.02608826314012538 0.2840430001014083 -0.2498872481086657 
0 0 0 
0 0 0 
0 0 0 
0.4179645280854077 -0.2328422265006108 -0.2087276062403587 
0 0 0 
0 0 0 
0 0 0 
0 0 0 
0 0 0 
0 0 0 
0 0 0 
0 0 0 
0 0 0 
0 0 0 
0.7245736019217714 -0.5219090868064133 -0.1089220386145863 
0 0 0 
0 0 0 
0 0 0 
0.5259942239606608 -0.3995011558102812 -0.1281201725830794 
0 0 0 
-0.02462142783011067 0.1632999402862621 -0.1011905725022817 
0 0 0 
0 0 0 
0 0 0 
-0.2657942204793398 0.3046761005610648 -0.03287010711103829 
0 0 0 
0 0 0 
0.112530010086172 -0.2709951677821116 0.1528933450702645 
0 0 0 
0 0 0 
0 0 0 
-0.02695844159345735 -0.2965345616123122 0.3736634050694091 
-0.1286475314432908 0.2049309197984582 -0.1183186900059896 
0 0 0 
0 0 0 
0 0 0 
0 0 0 
0 0 0 
0 0 0 
0 0 0 
0 0 0 
0 0 0 
0.06124442222494517 -0.23653644308039 0.217183395828368 
0 0 0 
0 0 0 
0.0983090779567478 -0.1385164962957646 0.04633775292474032 
0 0 0 
0.4596673912348579 -0.2815991853211359 -0.135019697577773 
0 0 0 
0 0 0 
0 0 0 
0 0 0 
0 0 0 
0 0 0 
0.0366836327262805 0.147549091847274 -0.1857876701699969 
0 0 0 
0 0 0 
0 0 0 
0 0 0 
0.2980534795235078 -0.4954197093393524 0.2198032528794756 
0 0 0 
-0.4621046859474606 0.05875838200328158 0.4227299878075669 
0 0 0 
0 0 0 
0 0 0 
0.08030513581617629 -0.245918380256674 0.1931128495980277 
0 0 0 
-0.2515895914269512 -0.09608646575187682 0.3946738992195499 
0 0 0 
0 0 0 
0 0 0 
0 0 0 
0 0 0 
0 0 0 
0 0 0 
-0.0111520514146036 -0.04604748678220035 0.08995682553087173 
0 0 0 
-0.4570315752067179 0.4037536094764375 0.03001530041911766 
0 0 0 
0 0 0 
0 0 0 
0.08825909407992026 0.2513227320623538 -0.3352518942242159 
0 0 0 
0 0 0 
0 0 0 
0 0 0 
0 0 0 
0 0 0 
0 0 0 
-0.1252962864818493 0.01849312119062537 0.1127924267012103 
0.1756472034452405 -0.3960766329676002 0.2272953184458275 
0 0 0 
-0.1436443082502206 0.4409574797084954 -0.2556781093573953 
0 0 0 
-0.3170321594399115 -0.3619064614122662 0.7377866640632574 
0.03488474306537306 0.08860751602800537 -0.09521121167015172 
0 0 0 
0 0 0 
0 0 0 
-0.3384086793455354 -0.1177767560747909 0.4555169260700828 
0.2958272243371929 0.001670815173724132 -0.3405242413226212 
0 0 0 
0 0 0 
-0.06907635470527494 0.2698493975773035 -0.2047392939618267 
0 0 0 
0 0 0 
0 0 0 
0 0 0 
0 0 0 
0.1776501084543565 -0.03866566816666785 -0.1281868289591974 
0 0 0 
-0.1338286727102473 0.3774546024484874 -0.2692839265555053 
0.5543521743606914 -0.585817877007357 0.04116872727832734 
0 0 0 
0 0 0 
0 0 0 
0 0 0 
0 0 0 
0 0 0 
0.1694544400985487 -0.07177253331553711 -0.1339367182398991 
0 0 0 
-0.001291384185752753 -0.0009116035448050537 0.002091358600378558 
0 0 0 
0 0 0 
0 0 0 
0 0 0 
-0.002223332701156587 0.2611738526802612 -0.2694931813124148 
0.3338153440404255 -0.3125962521488626 -0.04626609029249751 
0.1961501642850781 -0.09686159485955097 -0.1062337076169085 
0 0 0 
0 0 0 
0 0 0 
0 0 0 
0 0 0 
0 0 0 
0 0 0 
0 0 0 
0 0 0 
0 0 0 
-0.3504044505896947 -0.005334562284239897 0.3639205735163158 
0 0 0 
0 0 0 
0 0 0 
0 0 0 
-0.1685373168625421 -0.093438170554345 0.2784225577414461 
-0.06730329681648975 -0.05161997159914432 0.1476009068217582 
0 0 0 
0.01183930858380402 -0.3027912965610596 0.2875985717863367 
-0.1151000572085153 0.6658558656298921 -0.546491606163962 
-0.102675048252898 0.2248873322914638 -0.09987805751156438 
-0.3490101327222835 0.2172405863774208 0.1213488521567039 
0 0 0 
-0.1458101872792999 -0.08516809352263216 0.235557271458119 
-0.08957103306533258 0.3604377275245041 -0.2837461336498597 
0 0 0 
0 0 0 
0 0 0 
0 0 0 
0 0 0 
0 0 0 
0 0 0 
0 0 0 
0.7276380046877452 -0.3637063124767068 -0.3509591006754991 
0 0 0 
0 0 0 
0 0 0 
0.03416257468705403 0.05561323308857987 -0.1358428994172474 
0.1902328620343988 -0.554994882628728 0.3612974138232745 
0 0 0 
0 0 0 
0.04055106637047871 0.1628799505516676 -0.2046679585916293 
0.2874702596168481 -0.1943496712965094 -0.1038930386877196 
0 0 0 
0 0 0 
0 0 0 
0 0 0 
0 0 0 
-0.2957590643961869 0.3372582097001477 -0.05083016480444066 
0 0 0 
0.1123815114025134 0.0498420601597161 -0.1196626718232247 
0 0 0 
0 0 0 
0 0 0 
0 0 0 
0.3052298843496662 -0.0582639382992098 -0.2313090172653446 
0.4499650919590343 -0.1823669206166959 -0.2159673841730465 
0 0 0 
0 0 0 
0 0 0 
0 0 0 
0 0 0 
0 0 0 
0.3283544375389542 -0.2372824258021835 -0.05308123451880823 
0 0 0 
0 0 0 
-0.3062455665417754 0.161336927494495 0.1720459750282012 
-0.0005256191223100729 -0.1735119629186022 0.1810697611226685 
0 0 0 
0 0 0 
0 0 0 
0 0 0 
0 0 0 
0 0 0 
0 0 0 
0 0 0 
0 0 0 
0 0 0 
0 0 0 
0 0 0 
0.005699827013878877 -0.07416888023497045 0.06687224560182212 
0 0 0 
0 0 0 
-0.2640408031224993 0.1322689202222832 0.09429993437837807 
0 0 0 
0 0 0 
0 0 0 
0 0 0 
0 0 0 
0 0 0 
0.1558159912500346 -0.0185510775990072 -0.1458146256290914 
0 0 0 
0 0 0 
0 0 0 
0 0 0 
0 0 0 
0.2913683013303369 -0.4151617224564911 0.1190173125973394 
0 0 0 
0 0 0 
0 0 0 
0 0 0 
0 0 0 
0 0 0 
0.2579773742014096 -0.308984492319818 0.03697703077525715 
0 0 0 
-0.2368997188049977 0.2219981345631973 0.009884534716996348 
0 0 0 
0.1740275307600895 0.008524456139113453 -0.1731918283923971 
0 0 0 
0 0 0 
-0.1141167124943152 0.1174485371548574 0.0188095871038775 
0 0 0 
0 0 0 
0 0 0 
0 0 0 
-0.3167918174217269 0.1530877861130625 0.1576023331266203 
0 0 0 
0 0 0 
0 0 0 
0 0 0 
0 0 0 
0 0 0 
0 0 0 
-0.05120966306758686 -0.1486073791639175 0.1686705917913511 
0.3200029016584065 -0.1706201864619963 -0.1329013208767426 
0 0 0 
0 0 0 
-0.2633552462389115 0.631079713659531 -0.3836625360800275 
0 0 0 
0 0 0 
-0.02344033022218733 -0.1142895001048173 0.1570807512255872 
0 0 0 
0 0 0 
0 0 0 
0 0 0 
0 0 0 
0 0 0 
0 0 0 
-0.1454672396844033 -0.4145920566705394 0.5585506579929456 
0 0 0 
0.019051358445086 -0.08129160448797915 0.04336328371548362 
0 0 0 
0 0 0 
0.3365394756897763 -0.1034958665600713 -0.210784119689603 
0 0 0 
0 0 0 
0 0 0 
0 0 0 
0 0 0 
-0.2286966795504491 0.1816920126583427 0.02497941303112869 
0 0 0 
0 0 0 
0 0 0 
0 0 0 
0 0 0 
0 0 0 
0 0 0 
0 0 0 
-0.296175296843226 0.003525019262372174 0.2933914909507415 
0.01815778607600323 0.205615544249396 -0.2071311489127877 
0 0 0 
0 0 0 
0 0 0 
0 0 0 
0 0 0 
0 0 0 
0 0 0 
0 0 0 
0 0 0 
0 0 0 
0 0 0 
0 0 0 
-0.2450302844514675 0.4571229441183585 -0.2055271193491507 
0 0 0 
0 0 0 
0 0 0 
0 0 0 
0 0 0 
0 0 0 
0 0 0 
0 0 0 
0.04722776033602488 0.2258076914175473 -0.2895188129171297 
0 0 0 
0 0 0 
0 0 0 
0 0 0 
0 0 0 
-0.0402538900536089 -0.4230935780577643 0.4524771187548317 
0 0 0 
-0.03919901820318038 0.1790990021956024 -0.1068596226625061 
0 0 0 
0 0 0 
0 0 0 
0 0 0 
0.145741541648014 -0.1373054977945341 0.01482433348428624 
0 0 0 
0 0 0 
0 0 0 
0 0 0 
0 0 0 
0 0 0 
0.5964712693151227 -0.2684678700299058 -0.3027646434003743 
0 0 0 
0 0 0 
0 0 0 
-0.08196134320955688 0.267898009565479 -0.1858826144270931 
0 0 0 
0.1513756030293689 -0.3927820615266343 0.2109441477408826 
0 0 0 
-0.430684319850921 0.2499479246689246 0.1278288919223985 
0 0 0 
0 0 0 
0 0 0 
0.1563420418864866 -0.256099187547746 0.1092609030483472 
0 0 0 
-0.1483311999293033 -0.09227842656497495 0.2528802661177169 
-0.444812269407273 0.1305471362061142 0.3421487456303381 
0.227042317653872 -0.4063456295087414 0.1558698816807985 
0 0 0 
0 0 0 
0 0 0 
0 0 0 
0 0 0 
-0.486377542282283 0.2429164743427002 0.2069939166785082 
0 0 0 
0 0 0 
0 0 0 
0 0 0 
0.2800257970534834 -0.09621838825976932 -0.1552630889623563 
0 0 0 
0 0 0 
0 0 0 
0 0 0 
0 0 0 
0.2321345289831363 -0.1132397242683065 -0.06988634037104567 
-0.246374249026026 0.04985197244837784 0.2146785626709414 
0.1833191507142541 -0.5164074821070372 0.3131240499675214 
0 0 0 
0.01193625773105487 0.009406500739495555 -0.01681587356934033 
0 0 0 
0 0 0 
0 0 0 
0 0 0 
0 0 0 
0 0 0 
0.2942846808418862 -0.385320856324114 0.1121156877739448 
0 0 0 
-0.231438988589738 0.1958359995074404 -0.0001416614424006469 
0.1061898310234987 -0.7112166690835544 0.6520169369143443 
0.2096676478663821 -0.1656540548732109 -0.08984369329203214 
0 0 0 
0 0 0 
0 0 0 
0 0 0 
0 0 0 
0 0 0 
0 0 0 
0 0 0 
0 0 0 
0 0 0 
0 0 0 
0 0 0 
0 0 0 
0 0 0 
0 0 0 
0 0 0 
0 0 0 
0 0 0 
0.063955905975052 -0.14220793735108 0.04313445797587446 
0 0 0 
0 0 0 
0.1034241806444645 -0.380787982809102 0.2793041742717613 
0 0 0 
0 0 0 
0.09570824693603398 0.03089786119273921 -0.1038030048208245 
0.09103185592795546 -0.6707727266272383 0.6254205285234609 
0 0 0 
0 0 0 
0 0 0 
0 0 0 
0 0 0 
0 0 0 
0 0 0 
-0.3655308468024561 0.5049202595238671 -0.1758984509535923 
0 0 0 
0 0 0 
0 0 0 
0.06524523641490484 -0.02016060579396341 -0.02423601612271956 
0 0 0 
0.2921168912733603 -0.2824343416211011 0.01246439555748698 
0 0 0 
0.318506938809369 -0.4767625749323506 0.1983999752009374 
0.3225322410444287 -0.04457432287619925 -0.251835140322277 
0 0 0 
0.04145527846404768 -0.2825110894027812 0.2344054837393704 
0.2369814687104138 -0.2254979456865195 -1.604307785220982e-05 
-0.2162738506442197 0.3805701602574414 -0.1605740357605737 
0 0 0 
0.7047148571339492 -0.5954465720164791 -0.06921526271975573 
0 0 0 
0 0 0 
0 0 0 
0 0 0 
0 0 0 
0 0 0 
0 0 0 
0 0 0 
0 0 0 
0 0 0 
0 0 0 
0 0 0 
0 0 0 
0 0 0 
0 0 0 
0 0 0 
0 0 0 
0 0 0 
0 0 0 
0 0 0 
0 0 0 
0 0 0 
